tree
version=v4
num_class=1
num_tree_per_iteration=1
label_index=0
max_feature_idx=137
objective=regression
feature_names=GP Min_per Ortg usg eFG TS_per ORB_per DRB_per AST_per TO_per FTM FTA FT_per twoPM twoPA twoP_per TPM TPA TP_per blk_per stl_per ftr num porpag adjoe pfr year Rec_Rank ast_div_tov rimmade rimmade_plus_rimmiss midmade midmade_plus_midmiss rimmade_div_rimmade_plus_rimmiss midmade_div_midmade_plus_midmiss dunksmade dunksmiss_plus_dunksmade dunksmade_div_dunksmade_plus_dunksmiss drtg adrtg dporpag stops bpm obpm dbpm gbpm mp ogbpm dgbpm oreb dreb treb ast stl blk pts Unnamed_65 pts_improvement pts_total_improvement treb_improvement treb_total_improvement ast_improvement ast_total_improvement TS_per_improvement TS_per_total_improvement bpm_improvement bpm_total_improvement Min_per_improvement Min_per_total_improvement usg_improvement usg_total_improvement pts_career_avg treb_career_avg ast_career_avg TS_per_career_avg bpm_career_avg Min_per_career_avg usg_career_avg years_in_college ppg rpg apg spg bpg orpg drpg per tsa usage_rate ast_to_ratio offensive_rating ts_pct efg_pct two_pt_pct two_pt_rate three_pt_pct three_pt_rate three_pt_made_per_game ft_pct ft_rate ft_made_per_game rim_pct mid_pct dunk_pct orb_rate drb_rate total_reb_rate reb_dominance stl_rate blk_rate defensive_rating adj_defensive_rating defensive_contrib class_year_numeric is_freshman is_sophomore is_junior is_senior years_played is_major_conf conf_avg_offense conf_avg_defense conf_avg_bpm pos_C pos_Combo_G pos_PF_div_C pos_Pure_PG pos_Scoring_PG pos_Stretch_4 pos_Wing_F pos_Wing_G games_played_pct is_starter mpg total_minutes scoring_versatility well_rounded_score efficiency_composite
feature_infos=[3:41] [1.5:96.5] [52:141.90000000000001] [10:38.399999999999999] [36.200000000000003:70.599999999999994] [42.479999999999997:72.329999999999998] [0:23.699999999999999] [2.5:32.700000000000003] [0:48.299999999999997] [7.0999999999999996:61.600000000000001] [0:258] [0:324] [0:0.92000000000000004] [0:311] [2:536] [0:0.73199999999999998] [0:147] [0:327] [0:1] [0:18.300000000000001] [0.40000000000000002:5] [0:111.5] [0:55] [-1.3815200000000001:7.4994800000000001] [44.354300000000002:151.483] [1.1000000000000001:7.7999999999999998] [2009:2018] [1.6000000000000001:100] [0:5.1666663000000002] [0:213] [0:284] [0:146] [1:316] [0.33329999999999999:0.83999999999999997] [0:1] [0:94] [0:98] [0:1] [77.277900000000002:112.64] [73.212699999999998:113.312] [0.24598:5.5660299999999996] [3.0219800000000001:316.56] [-10.2698:15.277200000000001] [-7.6672799999999999:11.2197] [-4.69238:10.3866] [-9.9808800000000009:15.899800000000001] [4.2857000000000003:39.343800000000002] [-7.8381600000000002:11.479799999999999] [-3.4815200000000002:7.1356099999999998] [0:5.75] [0.20000000000000001:10.542899999999999] [0.33329999999999999:14.4] [0:9.75] [0.15379999999999999:3.0270000000000001] [0:5.2580999999999998] [0.80000000000000004:29.305599999999998] [0:16.310300000000002] [-13.7882:16] [-13.7882:22.443000000000001] [-6.0785:7.4306000000000001] [-7.2112000000000007:9.2050999999999998] [-4.4722:5.2230999999999996] [-4.2391999999999994:5.3742000000000001] [-14.93:26.670000000000002] [-13.379999999999995:62.82] [-15.744059999999999:17.660409999999999] [-19.052109999999999:14.037929999999999] [-66.800000000000011:81.400000000000006] [-61.200000000000003:85.700000000000003] [-14.900000000000002:15.1] [-14.400000000000002:24.199999999999999] [1.60585:28.636399999999998] [1.4824999999999999:14.4] [0.036999999999999998:8.6562000000000001] [39.546666666666667:70.319999999999993] [-5.0979449999999993:14.8828] [4.0999999999999996:96.5] [10.15:38.399999999999999] [1:11] [0.053333333333333302:3.3333333333333335] [0.02222:2.2222333333333331] [0:0.38842727272727279] [0.0055394736842105004:0.33333333333333331] [0:0.1840291666666666] [0:0.44443333333333329] [0.013333333333333299:1.7777666666666667] [0.0050268164684048001:1.4893013809910645] [3:881.20000000000005] [10:38.399999999999999] [0:3.9506172839506175] [52:141.90000000000001] [42.479999999999997:72.329999999999998] [36.200000000000003:70.599999999999994] [0:0.73199999999999998] [0.16652789342214819:0.99997701202271216] [0:1] [0:0.8326394671107411] [0:3.9729729729729728] [0:0.92000000000000004] [0:111.5] [0:7.375] [0:0.83999999999999997] [0:1] [0:1] [0:23.699999999999999] [2.5:32.700000000000003] [4:51.299999999999997] [0.00071822575183910005:0.54200813008130078] [0.40000000000000002:5] [0:18.300000000000001] [77.277900000000002:112.64] [73.212699999999998:113.312] [0.010614285714285699:0.44443333333333329] [1:4] [0:1] [0:1] [0:1] [0:1] [1:11] [0:1] [79.301030873102164:99.402203835139076] [94.407841939393919:109.93145229362101] [-6.1738272570759136:1.5600026573333332] [0:1] [0:1] [0:1] [0:1] [0:1] [0:1] [0:1] [0:1] [0.085714285714285701:1] none [1.5:96.5] [7.5:3788.4000000000001] [0:3] [0.0035555999999999999:0.1266653333333333] [0.17840376623376619:0.95376397599451324]
tree_sizes=2837 3007 2778 2952 2914 2766 3022 2703 2764 2856 2801 2938 2893 3022 2797 2684 3026 2783 2781 2679 2810 3055 2590 2801 2559 2674 2959 2941 2928 2843 3022 2938 3051 2793 2960 2880 3110 2920 3025 3136 2833 3179 2952 3178 2698 2897 2721 2931 3064 3164 3203 3058 2829 2956 2721 3100 3071 2861 3170 3074 2982 2970 2850 2858 2690 2951 2943 2726 2589 2749 3196 3080 2871 3094

Tree=0
num_leaves=29
num_cat=0
split_feature=113 75 27 92 113 24 60 57 23 55 45 29 63 76 77 17 134 65 38 102 50 59 32 69 87 46 42 64
split_gain=21692 9531.03 4095.3 3116.16 3189.08 3022.24 2941.8 2849.26 2184.81 2014.13 1813.11 1823.38 1529.35 2100.62 1376.87 1337.21 1316.01 1189.06 1105.02 925.439 1044.07 917.607 916.062 634.8 578.228 413.281 245.341 96.8
threshold=3.5000000000000004 7.756612500000001 98.90000000000002 51.050000000000004 2.5000000000000004 136.29950000000002 -0.53539999999999976 1.6290000000000007 3.9463500000000002 15.479750000000001 9.7464950000000012 63.500000000000007 0.41999999999999821 68.71250000000002 22.025000000000002 148.50000000000003 2878.5500000000006 1.4991999999999999 96.257600000000011 0.39550000000000002 3.8229000000000002 1.4049500000000004 140.50000000000003 -0.099999999999999575 424.38000000000005 31.623100000000004 5.3532000000000002 3.9400000000000017
decision_type=2 2 2 2 2 2 2 2 2 2 2 2 2 2 2 2 2 2 2 2 2 2 2 2 2 2 2 2
left_child=1 2 3 12 19 6 -2 -6 23 -4 11 -3 13 18 -9 21 -17 -7 -1 20 -5 -10 -15 -8 -13 -12 -25 -21
right_child=5 10 9 4 7 17 8 14 15 -11 25 24 -14 22 -16 16 -18 -19 -20 27 -22 -23 -24 26 -26 -27 -28 -29
leaf_value=29.261034475482742 28.976489011779847 29.126489032912403 28.916034484199923 29.246034474067134 29.881034468284337 28.744670832400036 29.864367797698154 29.396034478462976 29.107701145179313 27.93557990217657 28.252909461177627 28.649216293989678 29.935201132811347 28.60603447443966 28.615649852670472 30.198891596371315 29.500265246742362 29.464367799726368 29.972701133804758 28.291034451640886 28.540125381647606 29.726034471310417 29.242572946386012 30.404111366373158 28.183975633791444 27.893534443296236 30.10246302749723 28.511034476674837
leaf_weight=10.000000000000002 10.999999999999998 10.999999999999998 10.000000000000002 10.000000000000002 12.999999999999998 11.000000000000002 18 10.000000000000002 15.000000000000002 10.999999999999998 15.999999999999998 11.000000000000002 11.999999999999998 10.000000000000002 12.999999999999998 14.000000000000002 12.999999999999998 11.999999999999998 11.999999999999998 10.000000000000002 10.999999999999998 9.9999999999999982 12.999999999999998 13.000000000000002 17 15.999999999999998 13.999999999999998 9.9999999999999982
leaf_count=10 11 11 10 10 13 11 18 10 15 11 16 11 12 10 13 14 13 12 12 10 11 10 13 13 17 16 14 10
internal_value=29.1287 28.8319 29.0517 29.1534 28.946 29.6406 29.7514 29.2894 29.8393 28.4025 28.3522 28.581 29.4337 29.2999 28.9549 29.6185 29.8625 29.1202 29.6492 28.6444 28.8763 29.355 28.9658 30.0944 28.3667 28.0732 30.2477 28.401
internal_weight=357 226 155 134 77 131 108 36 97 21 71 39 57 45 23 52 27 23 22 41 21 25 23 45 28 32 27 20
internal_count=357 226 155 134 77 131 108 36 97 21 71 39 57 45 23 52 27 23 22 41 21 25 23 45 28 32 27 20
is_linear=0
shrinkage=1


Tree=1
num_leaves=30
num_cat=0
split_feature=113 75 27 4 113 24 60 57 23 23 29 110 7 70 108 16 64 68 1 34 12 11 69 73 75 85 42 23 32
split_gain=19577.1 8601.75 3696.01 2812.34 2878.15 2727.57 2654.98 2571.46 1971.79 1708.38 1631.72 1397.31 2039.32 1307 1295.16 1665.3 1269.52 962.209 1046.5 835.209 1163.83 780.268 574.537 811.25 285.236 269.196 231.275 96.8 66.4543
threshold=3.5000000000000004 7.756612500000001 98.90000000000002 51.050000000000004 2.5000000000000004 136.29950000000002 -0.53539999999999976 1.6290000000000007 3.9463500000000002 3.8610450000000003 59.500000000000007 95.47405000000002 19.050000000000004 6.450000000000002 1.6500000000000001 57.500000000000007 4.6499999999999995 4.8000000000000052 75.15000000000002 0.39550000000000002 0.73550000000000015 116.50000000000001 1.5499999999999992 0.8852500000000002 9.0816250000000007 0.13582339015151518 9.0970850000000016 4.3788050000000007 96.500000000000014
decision_type=2 2 2 2 2 2 2 2 2 2 2 2 2 2 2 2 2 2 2 2 2 2 2 2 2 2 2 2 2
left_child=1 2 3 11 19 6 -2 -6 22 -4 -3 12 -1 -7 -10 -16 -9 18 -13 20 -5 -12 23 -8 26 -25 -23 -21 -26
right_child=5 10 9 4 7 13 8 16 14 -11 21 17 -14 -15 15 -17 -18 -19 -20 27 -22 24 -24 25 28 -27 -28 -29 -30
leaf_value=-0.55995524898171412 -0.15336988595398993 -0.34993986957951595 -0.2687066848643801 -0.60347734080119553 0.70594826257572729 0.31369887131911051 0.41789241246879083 0.24970789492130271 0.81462034968768848 -1.1716812467575073 -0.51744537841189986 0.60049954354763013 0.42660970146005806 -0.44662747353315357 -0.093171511474065494 0.59915838398431476 -0.49963604578605064 0.75903200954198846 -0.12286102004349231 -0.81005171775817841 0.14181645095348358 -1.0211989467794242 1.1744667121342249 1.1528127288818355 -1.0356885576248167 0.79437151571566411 -0.68896230936050418 -0.59005171895027164 -1.2179717254638671
leaf_weight=10.000000000000002 10.999999999999998 19 11.000000000000002 11.000000000000002 12.999999999999998 13.000000000000002 10.000000000000002 10.000000000000002 17 9.9999999999999982 10.999999999999998 10.000000000000002 10.999999999999998 9.9999999999999982 15.999999999999998 19 12.999999999999998 15.999999999999998 9.9999999999999982 10.000000000000002 9.9999999999999982 11.000000000000002 13.999999999999998 10.000000000000002 10.000000000000002 10.999999999999998 9.9999999999999982 9.9999999999999982 9.9999999999999982
leaf_count=10 11 19 11 11 13 13 10 10 17 10 11 10 11 10 16 19 13 16 10 10 10 11 14 10 10 11 10 10 10
internal_value=-0.00881362 -0.290711 -0.0819388 0.0147169 -0.182363 0.477513 0.5828 0.143865 0.666283 -0.698695 -0.746481 0.280948 -0.0431831 -0.0168778 0.456573 0.282665 -0.173834 0.470025 0.238819 -0.468808 -0.248576 -0.891371 0.908615 0.788553 -0.991693 0.965058 -0.862991 -0.700052 -1.12683
internal_weight=357 226 155 134 77 131 108 36 97 21 71 57 21 23 52 35 23 36 20 41 21 52 45 31 41 21 21 20 20
internal_count=357 226 155 134 77 131 108 36 97 21 71 57 21 23 52 35 23 36 20 41 21 52 45 31 41 21 21 20 20
is_linear=0
shrinkage=0.05


Tree=2
num_leaves=28
num_cat=0
split_feature=113 75 113 23 76 57 23 59 53 74 4 45 29 60 40 61 62 12 53 19 23 81 71 66 74 78 52
split_gain=17668.3 7763.08 2670.09 3518.13 2582.91 2522.84 2460.59 1665.1 1608.78 1695.7 1596.72 1592.8 1539.91 1187.95 1871.97 1085.66 1010.63 985.981 815.355 611.628 529.461 529.133 507.709 498.857 391.658 386.848 79.9529
threshold=3.5000000000000004 7.756612500000001 1.5000000000000002 3.3357950000000005 49.095833333333339 1.8899000000000001 4.0702950000000007 -0.53239999999999987 0.98750000000000016 53.596250000000005 51.150000000000013 9.7464950000000012 63.500000000000007 1.1953000000000005 3.6323550000000004 0.32660000000000006 1.0000000180025095e-35 0.83350000000000002 0.82085000000000019 2.8500000000000001 3.5908700000000002 0.051684022556390957 11.932083333333335 1.7923100000000007 59.935000000000009 2.5000000000000004 1.1303000000000003
decision_type=2 2 2 2 2 2 2 2 2 2 2 2 2 2 2 2 2 2 2 2 2 2 2 2 2 2 2
left_child=1 2 3 18 -2 13 7 -6 21 -10 -7 12 -3 14 16 -12 -4 23 -1 25 26 -8 -14 -11 -13 -17 -9
right_child=4 11 5 -5 6 10 8 20 9 17 15 24 22 -15 -16 19 -18 -19 -20 -21 -22 -23 -24 -25 -26 -27 -28
leaf_value=0.22012599294002233 -0.21525859110630474 0.0066270863467996766 0.84865336179733264 -0.99604436755180359 0.26295567859302865 0.27259828597307206 0.46007990777492513 1.2379753208160398 0.73493147140199488 -0.072770017601380271 0.038370787898699445 -0.77225658808435715 -0.40591458708047856 0.7362851986518274 -0.24568610511720182 -0.54286659955978367 0.13779738903045655 -0.36908171772956849 -0.30590093861169676 -0.80188267707824723 0.75847270208246576 0.97444021701812744 -0.85025945107142131 0.3593618636622149 -1.1248696115281847 -0.10306683480739592 1.038034257888794
leaf_weight=13.000000000000002 12.999999999999998 10.999999999999998 10.000000000000002 15.999999999999998 10.999999999999998 15.999999999999998 10.000000000000002 10.000000000000002 10.999999999999998 11.000000000000002 14.999999999999998 13.999999999999998 10.000000000000002 12.999999999999998 14.999999999999998 10.000000000000004 9.9999999999999982 10.999999999999998 17 9.9999999999999982 17 9.9999999999999982 18 17 18 10 9.9999999999999982
leaf_count=13 13 11 10 16 11 16 10 10 11 11 15 14 10 13 15 10 10 11 17 10 17 10 18 17 18 10 10
internal_value=-0.00837295 -0.276175 -0.0778419 -0.397291 0.453638 0.0569715 0.527329 0.803055 0.33826 0.186661 -0.15641 -0.709157 -0.494639 0.328144 0.176549 -0.308947 0.493225 0.0320201 -0.0779559 -0.482605 0.963625 0.71726 -0.691565 0.189596 -0.970601 -0.322967 1.138
internal_weight=357 226 155 46 131 109 118 48 70 50 61 71 39 48 35 45 20 39 30 30 37 20 28 28 32 20 20
internal_count=357 226 155 46 131 109 118 48 70 50 61 71 39 48 35 45 20 39 30 30 37 20 28 28 32 20 20
is_linear=0
shrinkage=0.05


Tree=3
num_leaves=29
num_cat=0
split_feature=113 75 27 4 113 76 77 5 66 39 55 45 63 76 58 75 89 103 38 32 28 34 12 27 4 82 46 37
split_gain=15945.6 7006.18 3048.08 2353.62 2404.02 2331.08 2412.01 2387.97 2268.45 1620.05 1564.05 1437.5 1249.4 1676.65 1247.22 1238.62 1224.73 1055.89 900.729 731.698 725.792 710.912 1014.09 547.465 486.345 406.785 378.974 88.156
threshold=3.5000000000000004 7.756612500000001 98.90000000000002 51.050000000000004 2.5000000000000004 49.095833333333339 23.162500000000005 57.935000000000009 2.0194100000000001 93.107500000000016 15.479750000000001 9.7464950000000012 0.41999999999999821 68.71250000000002 9.0127000000000006 6.5717012500000012 0.54158849280800514 0.85035000000000005 96.257600000000011 140.50000000000003 1.3850132600000002 0.39550000000000002 0.73550000000000015 98.300000000000026 54.050000000000004 0.033954984051036606 31.623100000000004 0.91460000000000019
decision_type=2 2 2 2 2 2 2 2 2 2 2 2 2 2 2 2 2 2 2 2 2 2 2 2 2 2 2 2
left_child=1 2 3 12 21 -2 16 9 -6 -8 -4 17 13 18 -10 -9 -7 -3 -1 -15 25 22 -5 -19 -22 -18 -13 -23
right_child=5 11 10 4 8 6 7 15 14 -11 -12 26 -14 19 -16 -17 20 23 -20 -21 24 27 -24 -25 -26 -27 -28 -29
leaf_value=0.098088698387145956 -0.20449566488655715 -0.079661410922805473 -0.18147664070129388 -0.55635794543407158 0.65961250479404754 1.0657593872812059 0.15730268706878023 0.28734609101499825 0.21785544698888601 0.92583655714988711 -1.0454668565229936 -0.75000357180833821 0.71069264113903052 -0.48354236282408219 -0.51923154791196191 -0.36658004095156987 0.15445675904100586 -0.47066959423177379 0.74061034520467128 0.085347523540258416 1.0103152816945853 -0.74657466888427715 0.1393428587913513 -0.93690518856048577 0.54013866159048951 0.59507828950881958 -1.0941391557455062 -0.53662702262401585
leaf_weight=10.000000000000002 12.999999999999998 11.999999999999998 10.000000000000002 11.000000000000002 12.999999999999998 18 12.000000000000002 14.000000000000002 11.000000000000002 15.999999999999998 10.999999999999998 15.999999999999998 11.999999999999998 10.000000000000002 11.999999999999998 14.999999999999998 11.000000000000002 17.000000000000004 11.999999999999998 12.999999999999998 11.000000000000002 10.000000000000002 9.9999999999999982 9.9999999999999982 10.999999999999998 9.9999999999999982 15.999999999999998 9.9999999999999982
leaf_count=10 13 12 10 11 13 18 12 14 11 16 11 16 12 10 12 15 11 17 12 13 11 10 10 10 11 10 16 10
internal_value=-0.0079543 -0.262367 -0.0739498 0.013826 -0.166467 0.430956 0.500963 0.267108 0.131683 0.596465 -0.634043 -0.673699 0.257379 0.136496 -0.166712 -0.0508916 0.719483 -0.469907 0.448555 -0.161996 0.57453 -0.428257 -0.225072 -0.643349 0.775227 0.364277 -0.922071 -0.641601
internal_weight=357 226 155 134 77 131 118 57 36 28 21 71 57 45 23 29 61 39 22 23 43 41 21 27 22 21 32 20
internal_count=357 226 155 134 77 131 118 57 36 28 21 71 57 45 23 29 61 39 22 23 43 41 21 27 22 21 32 20
is_linear=0
shrinkage=0.05


Tree=4
num_leaves=29
num_cat=0
split_feature=117 75 27 24 4 76 61 22 55 82 59 71 48 38 7 70 76 103 58 33 24 73 15 3 96 75 106 77
split_gain=14390.9 6323.08 2750.89 2150.83 2124.14 1789.19 1692.85 1582.69 1411.56 1186.31 1463.62 1169.5 1166.68 1145.73 1711.6 1144.96 1025.53 1011.66 892.177 655.04 601.192 568.844 823.675 558.863 549.333 248.608 181.368 85.0415
threshold=1.0000000180025095e-35 7.756612500000001 98.90000000000002 136.29950000000002 51.050000000000004 49.095833333333339 -0.052699999999999844 12.500000000000002 15.479750000000001 0.039459815078236107 -0.53239999999999987 11.574458333333334 2.4817150000000008 95.47405000000002 19.050000000000004 6.450000000000002 68.71250000000002 0.85035000000000005 5.341050000000001 0.67420000000000013 120.25400000000002 1.1578916666666668 0.53650000000000009 22.350000000000005 0.3756277494823036 8.9913350000000012 27.150000000000006 25.341666666666672
decision_type=2 2 2 2 2 2 2 2 2 2 2 2 2 2 2 2 2 2 2 2 2 2 2 2 2 2 2 2
left_child=1 2 4 5 13 -2 -6 21 -4 10 -7 -11 17 14 -1 -5 -15 -3 -9 26 -21 -8 -23 -14 -13 -25 -12 -27
right_child=3 12 8 15 6 9 7 18 -10 11 19 24 23 16 -16 -17 -18 -19 -20 20 -22 22 -24 25 -26 27 -28 -29
leaf_value=-0.52242676198482496 -0.10142934559421107 0.039252530485391603 -0.17240281075239175 0.27979304607097916 0.38748847047487894 0.19549797823031745 -0.82210716247558602 0.26887478510538737 -0.99319349635731102 0.73987177068536936 0.84593202322721472 -0.14036866968328299 -0.55213836243278103 0.66815120985633447 0.38139804168180991 -0.43184137221425778 0.13359426707029343 -0.67196541190147396 -0.25324543304741381 0.87326419570229241 0.36151928280790652 -0.64658072392145782 -0.032156066298484803 -0.68776577472686773 0.37166799992322924 -0.89869724114735894 1.0923582281385149 -1.0961240673065187
leaf_weight=10.000000000000002 10.999999999999998 10.000000000000002 10.000000000000002 13.000000000000002 11.999999999999998 11.999999999999998 9.9999999999999982 14.999999999999998 10.999999999999998 10.999999999999998 16.000000000000004 11.000000000000002 19 19 10.999999999999998 9.9999999999999982 17 9.9999999999999982 18 11.000000000000002 11.999999999999998 12.000000000000002 9.9999999999999982 9.9999999999999982 9.9999999999999982 12.000000000000002 13.999999999999998 9.9999999999999982
leaf_count=10 11 10 10 13 12 12 10 15 11 11 16 11 19 19 11 10 17 10 18 11 12 12 10 10 10 12 14 10
internal_value=-0.00755658 -0.249248 -0.0702523 0.409408 0.0131347 0.502903 -0.158143 -0.258875 -0.602341 0.571436 0.694124 0.322225 -0.640014 0.24451 -0.0489947 -0.0296132 0.415722 -0.316356 -0.0159181 0.80702 0.606267 -0.509425 -0.367297 -0.766939 0.103458 -0.894477 0.960931 -0.988437
internal_weight=357 226 155 131 134 108 77 65 21 97 65 32 71 57 21 23 36 20 33 53 23 32 22 51 21 32 30 22
internal_count=357 226 155 131 134 108 77 65 21 97 65 32 71 57 21 23 36 20 33 53 23 32 22 51 21 32 30 22
is_linear=0
shrinkage=0.05


Tree=5
num_leaves=28
num_cat=0
split_feature=117 45 24 10 27 114 38 21 17 39 39 34 75 49 66 3 21 3 37 48 134 3 100 109 48 34 122
split_gain=14358.7 4335.02 3298.85 2974.99 2653.29 2101.21 1794.49 2088.06 1632.06 1459.48 1402.32 1186.59 1164.7 967.374 928.793 926.211 829.642 800.496 945.68 795.177 723.84 571.25 525.949 351.834 280.548 216.56 170.682
threshold=1.0000000180025095e-35 8.4902900000000017 131.64250000000001 126.50000000000001 97.700000000000003 1.0000000180025095e-35 95.695450000000008 38.70000000000001 107.50000000000001 99.919300000000007 92.880250000000018 0.33690000000000003 6.5717012500000012 2.2343000000000006 2.8446500000000001 28.550000000000004 48.150000000000006 22.950000000000003 0.91460000000000019 3.1989300000000003 2889.4000000000005 27.950000000000003 2.0414673046252001 3.6500000000000008 1.0771050000000002 0.36090000000000005 -1.3226540076097801
decision_type=2 2 2 2 2 2 2 2 2 2 2 2 2 2 2 2 2 2 2 2 2 2 2 2 2 2 2
left_child=1 3 9 6 8 15 16 11 -5 10 17 -8 -4 -9 24 19 22 18 -2 -3 26 -14 -1 -21 -13 -6 -12
right_child=2 5 12 4 25 -7 7 13 -10 -11 20 14 21 -15 -16 -17 -18 -19 -20 23 -22 -23 -24 -25 -26 -27 -28
leaf_value=-0.10671663880348203 0.25699320273008192 -0.0052997854434781609 0.36899900927263152 -0.52544283675537862 -1.0068644118309018 -0.98562132433841099 0.46067786018053697 0.90110066854036752 0.28841439144951958 0.026300451159477236 0.88871651996265744 -0.084060556292533853 0.041765834018588056 0.24697750091552734 0.28720846295356756 -0.72428853682109295 0.11530908271670343 0.21946571092638703 0.8634289807743496 -0.65336231101642939 0.56884684016307197 -0.46089526951313026 -0.52635803222656252 -0.25345684019002052 -0.43080976882151201 -0.67780512869358067 1.1480197842915851
leaf_weight=14.000000000000002 10.000000000000002 18 17 11.000000000000002 10.000000000000002 19 11.999999999999998 13.000000000000002 13.999999999999998 9.9999999999999982 11 10.000000000000002 13.000000000000002 9.9999999999999982 9.9999999999999982 13.999999999999998 15.999999999999998 18 18 11.000000000000002 11.999999999999998 9.9999999999999982 15.999999999999998 10.999999999999998 13.999999999999998 9.9999999999999982 15
leaf_count=14 10 18 17 11 10 19 12 13 14 10 11 10 13 10 10 14 16 18 18 11 12 10 16 11 14 10 15
internal_value=0.0230787 -0.214096 0.43548 -0.0684201 -0.413084 -0.533387 0.0664482 0.227715 -0.0696828 0.597313 0.66529 0.0332234 0.0551747 0.616699 -0.117643 -0.374268 -0.175453 0.479609 0.646845 -0.25176 0.890062 -0.176782 -0.330525 -0.45341 -0.286331 -0.842335 1.03831
internal_weight=367 233 134 160 45 73 115 69 25 94 84 46 40 23 34 54 46 46 28 40 38 23 30 22 24 20 26
internal_count=367 233 134 160 45 73 115 69 25 94 84 46 40 23 34 54 46 46 28 40 38 23 30 22 24 20 26
is_linear=0
shrinkage=0.05


Tree=6
num_leaves=30
num_cat=0
split_feature=113 45 24 10 47 113 33 100 53 39 42 74 75 2 22 3 61 50 48 4 36 30 39 18 121 48 61 15 50
split_gain=12958.7 3912.35 2977.21 2684.93 2418.03 1896.34 1683.3 1847.55 1679.29 1317.18 1328.1 1130.12 1051.14 889.616 872.214 835.906 758.889 738.133 717.648 684.174 630.144 948.508 709.1 524.141 345.687 338.75 273.172 272.002 126.095
threshold=3.5000000000000004 8.4902900000000017 131.64250000000001 126.50000000000001 5.6076900000000007 1.5000000000000002 0.72920000000000018 3.2236111111111119 0.47750000000000004 99.919300000000007 5.1376350000000004 50.679166666666674 6.5717012500000012 110.55000000000001 20.500000000000004 28.550000000000004 0.10204999999999992 4.3178500000000009 3.1989300000000003 54.550000000000004 10.500000000000002 121.50000000000001 92.955800000000011 0.39250000000000007 96.848736068185715 1.8006700000000002 0.084950000000000012 0.49550000000000005 4.2619000000000016
decision_type=2 2 2 2 2 2 2 2 2 2 2 2 2 2 2 2 2 2 2 2 2 2 2 2 2 2 2 2 2
left_child=1 3 9 6 16 -3 7 8 -1 10 28 -10 -4 14 -13 18 25 -9 -7 -15 27 -22 -23 -14 -20 -5 -8 -12 -2
right_child=2 5 12 4 -6 15 26 17 11 -11 20 13 23 19 -16 -17 -18 -19 24 -21 21 22 -24 -25 -26 -27 -28 -29 -30
leaf_value=0.60345593704418699 0.83352544896135261 -0.93634023917348763 0.35054906185935525 -0.61109653015931431 0.18261042925027701 -0.005034793830580182 -0.16900231920182698 0.84745235009626885 0.42143659234046943 0.024985429644584656 0.9047805655002592 -0.57320281933335682 0.060582710305849698 -0.20895421396602276 -0.029143812679327454 -0.68807409490857818 -0.26488279074430471 0.25391164422035217 -0.64785470962524394 0.33696715186039605 -0.037807559762150056 0.32876089881174259 0.86548409938812265 -0.41724449504505512 -0.24980942631761233 -1.0051276016235353 -0.53857756614685059 0.56812886397043871 1.0678916851679483
leaf_weight=10.999999999999998 11.000000000000002 19 17 12.000000000000002 12.999999999999998 18 10.000000000000002 11.000000000000002 9.9999999999999982 9.9999999999999982 10.000000000000002 17.000000000000004 12.000000000000002 11.000000000000002 12.999999999999998 13.999999999999998 9.9999999999999982 9.9999999999999982 10.000000000000002 11.999999999999998 9.9999999999999982 16.000000000000004 9.9999999999999982 10.999999999999998 11.999999999999998 9.9999999999999982 9.9999999999999982 14.999999999999998 11.999999999999998
leaf_count=11 11 19 17 12 13 18 10 11 10 10 10 17 12 11 13 14 10 10 10 12 10 16 10 11 12 10 10 15 12
internal_value=0.0219248 -0.203392 0.413706 -0.0649991 -0.392429 -0.506718 0.0631258 0.150898 0.0334348 0.567447 0.632026 -0.0660927 0.0524159 -0.158079 -0.337444 -0.355554 -0.626039 0.564814 -0.239172 0.0758743 0.509946 0.376026 0.535193 -0.167943 -0.430739 -0.790202 -0.35379 0.70279 0.955803
internal_weight=367 233 134 160 45 73 115 95 74 94 84 63 40 53 30 54 32 21 40 23 61 36 26 23 22 22 20 25 23
internal_count=367 233 134 160 45 73 115 95 74 94 84 63 40 53 30 54 32 21 40 23 61 36 26 23 22 22 20 25 23
is_linear=0
shrinkage=0.05


Tree=7
num_leaves=27
num_cat=0
split_feature=113 75 11 43 68 38 99 40 42 100 102 71 68 58 39 92 52 86 100 56 27 69 92 113 48 3
split_gain=11695.3 3587.33 2885.51 2291.12 1535.71 1264.6 1989.2 1213.68 1292.05 1030.81 976.89 964.107 944.785 909.362 994.79 903.189 1366.24 885.251 670.735 592.616 527.387 495.641 491.283 332.989 307.126 193.091
threshold=3.5000000000000004 7.756612500000001 152.50000000000003 6.5100450000000007 30.699999999999999 95.695450000000008 40.150000000000013 2.7721500000000003 5.1376350000000004 4.1638392857142863 0.32410000000000005 9.1015416666666678 5.4499999999999966 9.8447500000000012 92.955800000000011 56.70000000000001 4.2836500000000006 0.0094853575853800515 2.5598290598290601 1.9996500000000001 98.300000000000026 1.2000000000000013 51.45000000000001 1.5000000000000002 2.9697000000000005 25.250000000000004
decision_type=2 2 2 2 2 2 2 2 2 2 2 2 2 2 2 2 2 2 2 2 2 2 2 2 2 2
left_child=1 2 5 7 9 12 17 -2 25 21 -3 -10 19 14 24 16 -5 22 -12 -1 -11 -4 -7 -20 -13 -9
right_child=3 10 4 15 -6 6 -8 8 11 20 18 13 -14 -15 -16 -17 -18 -19 23 -21 -22 -23 -24 -25 -26 -27
leaf_value=-0.02920776888728141 -0.016969236731529235 -0.16941791963763536 -0.37587564552531516 0.62538042128086047 0.12154662124812604 0.11188837045972995 0.70670670551412251 0.99858735288892453 0.79297507032752046 -0.47419846836063589 -0.29456502248843514 0.1505493100887785 0.21469117024770151 -0.079349414110183716 0.77857503573099773 -0.37493876978754997 -0.1821283291686665 0.32279203569418508 -0.8707436429826837 -0.54118278118280272 -0.91364003961736506 0.067744321525096893 -0.34213010898003215 -0.57063912252585103 0.49614736676216131 0.71091878920793539
leaf_weight=10.000000000000002 9.9999999999999982 15.999999999999998 17.000000000000004 10.000000000000005 15.999999999999998 11.000000000000002 17 14.000000000000002 15.999999999999998 18.000000000000004 11.999999999999998 18.000000000000004 12.999999999999998 9.9999999999999982 14.999999999999998 9.9999999999999982 10.999999999999998 19 19 12.999999999999998 10.999999999999998 9.9999999999999982 12.999999999999998 18 9.9999999999999982 9.9999999999999982
leaf_count=10 10 16 17 10 16 11 17 14 16 18 12 18 13 10 15 10 11 19 19 13 11 10 13 18 10 10
internal_value=0.0208286 -0.193222 -0.0711883 0.393021 -0.310463 0.108267 0.248836 0.506445 0.562726 -0.433894 -0.508632 0.452813 -0.126013 0.350123 0.45 0.0161614 0.2024 0.067817 -0.619396 -0.318585 -0.640883 -0.211572 -0.134038 -0.724747 0.273977 0.878725
internal_weight=367 233 168 134 72 96 60 103 93 56 65 69 36 53 43 31 21 43 49 23 29 27 24 37 28 24
internal_count=367 233 168 134 72 96 60 103 93 56 65 69 36 53 43 31 21 43 49 23 29 27 24 37 28 24
is_linear=0
shrinkage=0.05


Tree=8
num_leaves=28
num_cat=0
split_feature=113 45 23 113 41 74 107 113 10 82 30 60 103 50 39 105 3 118 105 48 69 17 57 19 57 31 4
split_gain=10555 3307.67 2507.87 2197.38 2400.12 1673.55 1660.1 1551.59 1224.09 1169.41 1048.68 927.825 772.658 758.725 939.217 908.762 725.531 717.001 630.299 617.858 507.745 496.888 494.34 310.629 255.299 224.081 137.653
threshold=3.5000000000000004 8.4902900000000017 6.0307650000000006 2.5000000000000004 146.98550000000003 54.086666666666673 0.0037869608359419504 1.5000000000000002 126.50000000000001 0.039459815078236107 64.500000000000014 1.2940500000000006 0.92545000000000011 3.6030500000000005 92.880250000000018 18.550000000000004 28.550000000000004 1.5000000000000002 10.65 3.1989300000000003 0.65000000000000047 79.500000000000014 4.772450000000001 3.6500000000000008 2.096150000000002 63.500000000000007 57.95000000000001
decision_type=2 2 2 2 2 2 2 2 2 2 2 2 2 2 2 2 2 2 2 2 2 2 2 2 2 2 2
left_child=1 3 9 4 -1 17 11 -3 12 13 -11 -5 -7 18 15 -15 19 21 -2 -9 -17 -6 -12 -21 -10 26 -16
right_child=2 7 -4 6 5 8 -8 16 24 10 22 -13 -14 14 25 20 -18 -19 -20 23 -22 -23 -24 -25 -26 -27 -28
leaf_value=0.34345418795158994 0.59654953837394697 -0.85107524144022095 -0.21405291855335237 0.17903176263759013 0.062855607813054853 -0.47365589969687999 -0.3217566251754761 -5.253743794229296e-05 -0.81044392883777605 -0.2346289432048797 0.14388913109898563 0.70507340431213383 -0.016513625885310926 0.7705442997125479 1.0589282608032222 0.48548412978649119 -0.63551850318908698 0.30344474682441125 0.068547335496315587 -0.58293193632906115 -0.018373632654547691 -0.42412584550678734 0.64105116844177257 -0.20717241357673299 -0.48839519456028935 0.65445263683795929 0.79658035755157475
leaf_weight=19 10.000000000000002 19 15.999999999999998 19 11.000000000000002 18 9.9999999999999982 18 16.000000000000004 10.000000000000002 10.000000000000002 14.999999999999998 19 12.999999999999998 10.000000000000002 10.000000000000002 13.999999999999998 12.999999999999998 12.999999999999998 11.000000000000002 9.9999999999999982 9.9999999999999982 9.9999999999999982 10.999999999999998 9.9999999999999982 11.999999999999998 9.9999999999999982
leaf_count=19 10 19 16 19 11 18 10 18 16 10 10 15 19 13 10 10 14 13 13 11 10 10 10 11 10 12 10
internal_value=0.0197871 -0.183561 0.37337 -0.056312 -0.170432 -0.27109 0.244549 -0.462463 -0.423661 0.453021 0.183437 0.411109 -0.238907 0.544924 0.632257 0.445096 -0.325729 0.0116157 0.298114 -0.217302 0.233555 -0.16904 0.39247 -0.395052 -0.686579 0.825266 0.927754
internal_weight=367 233 134 160 116 97 44 73 63 118 30 34 37 88 65 33 54 34 23 40 20 21 20 22 26 32 20
internal_count=367 233 134 160 116 97 44 73 63 118 30 34 37 88 65 33 54 34 23 40 20 21 20 22 26 32 20
is_linear=0
shrinkage=0.05


Tree=9
num_leaves=29
num_cat=0
split_feature=113 45 23 11 27 38 113 113 134 82 29 48 5 5 50 111 105 46 22 5 67 22 105 112 69 57 8 122
split_gain=9525.87 2985.17 2263.35 2016.67 1566.05 1401.86 1400.31 1238.57 1282.97 1055.39 946.43 813.6 864.617 756.297 684.749 847.643 820.158 681.509 667.923 647.228 695.079 622.705 568.845 492.857 458.24 446.142 203.485 186.961
threshold=3.5000000000000004 8.4902900000000017 6.0307650000000006 170.50000000000003 97.700000000000003 95.695450000000008 1.5000000000000002 2.5000000000000004 1605.1500000000003 0.039459815078236107 39.000000000000007 3.6028350000000002 54.180000000000007 54.850000000000001 3.6030500000000005 92.880250000000018 18.550000000000004 33.757200000000005 20.500000000000004 62.315000000000005 -1.0000000180025095e-35 14.500000000000002 10.65 0.035705793650793606 0.65000000000000047 4.772450000000001 7.6500000000000012 -1.0000000180025095e-35
decision_type=2 2 2 2 2 2 2 2 2 2 2 2 2 2 2 2 2 2 2 2 2 2 2 2 2 2 2 2
left_child=1 3 9 5 13 11 -3 8 -7 14 -11 12 -1 -5 22 16 -16 19 -9 20 -8 23 -2 -10 -18 -12 -17 -28
right_child=2 6 -4 4 -6 7 17 18 21 10 25 -13 -14 -15 15 26 24 -19 -20 -21 -22 -23 -24 -25 -26 -27 27 -29
leaf_value=-0.033242590824762976 0.56672205090522743 -0.80852148030933579 -0.20335026308894158 0.19775103727976476 -0.7002273117502531 0.54450537253171205 -0.36610858336091034 0.70369494983128122 0.045847384929656967 -0.22289749920368185 0.13669468045234676 0.17892293111265947 -0.56163563802838323 -0.34318776726722722 0.73201709045813645 0.59698945283889771 0.46120992362499225 -0.56064474284648902 0.1830485024912791 -0.50345155976035383 0.17205158631006875 0.20592307137946286 0.065119974773663741 -0.40161541998386385 -0.017454945556819441 0.60899861454963689 0.70933846712112425 1.002067724863688
leaf_weight=15.000000000000002 10.000000000000002 19 15.999999999999998 12.000000000000002 18 9.9999999999999982 10 14.000000000000002 10.000000000000002 10.000000000000002 10.000000000000002 11.999999999999998 15.999999999999998 13.999999999999998 12.999999999999998 9.9999999999999982 10.000000000000002 18 10.999999999999998 10.999999999999998 15 11.999999999999998 12.999999999999998 15.999999999999998 9.9999999999999982 9.9999999999999982 10 12
leaf_count=15 10 19 16 12 18 10 10 14 10 10 10 12 16 14 13 10 10 18 11 11 15 12 13 16 10 10 10 12
internal_value=0.0187978 -0.174383 0.354701 -0.0534964 -0.341721 0.0558301 -0.43934 0.189233 0.0405991 0.43037 0.174265 -0.170645 -0.305962 -0.0935237 0.517678 0.600644 0.422842 -0.309442 0.474611 -0.183841 -0.0432125 -0.0920078 0.283208 -0.229514 0.221877 0.372847 0.784003 0.869009
internal_weight=367 233 134 160 44 116 73 73 48 118 30 43 31 26 88 65 33 54 25 36 25 38 23 26 20 20 32 22
internal_count=367 233 134 160 44 116 73 73 48 118 30 43 31 26 88 65 33 54 25 36 25 38 23 26 20 20 32 22
is_linear=0
shrinkage=0.05


Tree=10
num_leaves=28
num_cat=0
split_feature=113 43 58 55 27 9 42 37 48 14 31 103 40 10 58 92 82 81 83 25 58 64 134 12 56 38 54
split_gain=7618.1 3257.75 2296.12 2318.87 2053.37 1927.09 1763.32 1295.87 1204.77 1199.58 1189.83 950.371 924.126 815.231 920.154 692.228 808.292 580.562 542.238 786.488 530.997 524.484 480.227 469.258 420.119 257.294 169.287
threshold=2.5000000000000004 2.6528350000000005 -1.2041000000000002 12.971450000000003 98.90000000000002 23.000000000000004 6.3172200000000007 0.97295000000000009 2.5095650000000007 339.50000000000006 77.500000000000014 0.92545000000000011 3.9916000000000005 136.50000000000003 1.845900000000001 59.850000000000001 0.041830208333333306 0.10977731092436972 0.031400925925925909 2.5500000000000003 9.6612000000000009 -1.0850000000000006 1674.8500000000001 0.80650000000000011 7.5122700000000009 90.149150000000006 0.54420000000000013
decision_type=2 2 2 2 2 2 2 2 2 2 2 2 2 2 2 2 2 2 2 2 2 2 2 2 2 2 2
left_child=1 5 -2 7 8 11 18 21 12 10 15 22 13 14 -3 16 24 -18 19 23 -11 -4 -1 -5 -8 -10 -6
right_child=2 4 3 6 26 -7 9 -9 25 20 -12 -13 -14 -15 -16 -17 17 -19 -20 -21 -22 -23 -24 -25 -26 -27 -28
leaf_value=-0.050279674232006057 -0.488464496533076 0.12700303699821233 0.62046106755733477 0.2623161728183428 -0.63970947699113312 0.67477974370121963 0.44477422684431067 0.8835486727602343 -0.74059596061706523 -0.089302812190726388 0.57171270821709186 0.18223703999366778 0.28387940883636475 -0.64349985361099249 -0.46705068864605642 -0.35295765023678544 0.11585732630919661 -0.38703082474795258 0.66955610488851869 0.0035916352272033695 -0.5405783349817449 0.16883520682652792 -0.51115729350310113 0.72607985794544216 0.076448989411195128 -0.43673653355554531 -0.88868034813139174
leaf_weight=10.000000000000002 11.999999999999998 16.000000000000004 10.000000000000002 12.000000000000002 11.000000000000002 9.9999999999999982 16.000000000000004 17 11.000000000000002 16.000000000000004 11.999999999999998 17 9.9999999999999982 9.9999999999999982 10.999999999999998 9.9999999999999982 12.000000000000002 10.999999999999998 11.999999999999998 14.999999999999998 10.999999999999998 18 12.999999999999998 9.9999999999999982 14.999999999999998 19 18
leaf_count=10 12 16 10 12 11 10 16 17 11 16 12 17 10 10 11 10 12 11 12 15 11 18 13 10 15 19 18
internal_value=-0.0143286 -0.278726 0.183021 0.223924 -0.435654 0.0539597 0.130585 0.539199 -0.300601 0.0131247 0.11483 -0.101245 -0.14259 -0.257852 -0.115019 0.029164 0.0999272 -0.124654 0.377493 0.282769 -0.273156 0.33013 -0.310776 0.473118 0.266552 -0.548152 -0.794243
internal_weight=365 156 209 197 106 50 152 45 77 103 76 40 47 37 27 64 54 23 49 37 27 28 23 22 31 30 29
internal_count=365 156 209 197 106 50 152 45 77 103 76 40 47 37 27 64 54 23 49 37 27 28 23 22 31 30 29
is_linear=0
shrinkage=0.05


Tree=11
num_leaves=29
num_cat=0
split_feature=113 47 57 42 9 55 34 63 37 77 68 1 22 7 74 9 102 32 76 82 40 76 6 113 57 40 66 83
split_gain=6875.34 3177.59 2266.43 1960.91 1753.76 1642.45 2056.69 1535.86 1398.78 1098.19 1074.42 1029.58 1026.92 1129.83 919.919 811.028 1298.98 740.484 663.173 560.521 543.155 535.553 398.096 343.538 355.657 238.138 179.77 83.4182
threshold=2.5000000000000004 3.4999300000000004 -2.299799999999999 10.955150000000001 23.000000000000004 13.601500000000003 0.37220000000000003 2.1500000000000026 0.90610000000000013 20.125000000000004 0.64999999999999869 78.65000000000002 27.500000000000004 19.350000000000005 57.145000000000003 18.150000000000002 0.32285000000000003 156.50000000000003 66.950000000000017 0.025348169642857101 3.6893450000000003 77.675000000000026 9.0500000000000025 1.5000000000000002 0.85215000000000096 3.6530750000000007 3.5149250000000012 0.022408173076923051
decision_type=2 2 2 2 2 2 2 2 2 2 2 2 2 2 2 2 2 2 2 2 2 2 2 2 2 2 2 2
left_child=1 4 -2 5 12 15 8 9 -7 -3 -8 -10 13 19 21 22 -17 -9 -16 -1 -13 26 -4 25 -25 -11 -12 -27
right_child=2 7 3 -5 -6 6 10 17 11 23 14 20 -14 -15 18 16 -18 -19 -20 -21 -22 -23 -24 24 -26 27 -28 -29
leaf_value=-0.72970235586166365 -0.56063473962247368 -0.05899908721446992 0.51462695933878411 -0.30277176955166984 0.57255504416922731 -0.47861156860987353 0.81879906117916113 -0.31644736801584555 -0.2622804136148521 -0.52635497848192858 0.71971103668212866 0.49882420209737915 0.33603920578956603 0.14989909331003826 -0.255210040916096 0.72750396370887738 -0.0081874537467956556 0.23901188403367996 0.24303348019499993 -0.22284389585256578 0.049997982595648083 0.12255180388689042 0.89559827645619716 -0.24546448841691007 -0.63041972835858662 -0.69987414800203751 0.44602496226628618 -0.87292039871215832
leaf_weight=10.000000000000002 9.9999999999999982 9.9999999999999982 16.000000000000004 17 11.999999999999998 14.999999999999998 9.9999999999999982 15.000000000000002 13.999999999999998 11.999999999999998 10.000000000000002 13.000000000000002 9.9999999999999982 11.999999999999998 11.000000000000002 10.000000000000002 14.999999999999998 9.9999999999999982 17 11.999999999999998 13.999999999999998 9.9999999999999982 11.999999999999998 10.000000000000002 14.999999999999998 13.000000000000002 14.999999999999998 14.999999999999998
leaf_count=10 10 10 16 17 12 15 10 15 14 12 10 13 10 12 11 10 15 10 17 12 14 10 12 10 15 13 15 15
internal_value=-0.0136122 -0.26479 0.17387 0.21078 0.0367623 0.258749 0.162472 -0.43366 -0.0654717 -0.546791 0.337332 0.0856771 -0.109363 -0.240364 0.260909 0.493084 0.286089 -0.0942637 0.047295 -0.453234 0.266099 0.4318 0.6779 -0.621836 -0.476438 -0.712711 0.555499 -0.792577
internal_weight=365 156 209 199 56 182 129 100 56 75 73 41 44 34 63 53 25 25 28 22 27 35 28 65 25 40 25 28
internal_count=365 156 209 199 56 182 129 100 56 75 73 41 44 34 63 53 25 25 28 22 27 35 28 65 25 40 25 28
is_linear=0
shrinkage=0.05


Tree=12
num_leaves=29
num_cat=0
split_feature=113 47 57 24 27 2 55 34 47 48 0 22 74 74 1 38 77 27 38 46 17 2 86 50 62 77 54 100
split_gain=6204.99 2867.78 2045.45 1780.86 1480.45 1387.67 1111.78 1551.98 1230.08 1064.71 1029.28 980.683 963.375 1001.83 811.988 790.611 692.093 640.104 604.413 844.243 579.81 544.491 415.52 324.445 261.094 207.703 130.643 77.977
threshold=2.5000000000000004 3.4999300000000004 -2.299799999999999 137.99250000000004 98.700000000000003 103.55000000000001 13.557200000000002 0.37120000000000003 5.6076900000000007 1.61575 30.500000000000004 24.500000000000004 57.145000000000003 59.395000000000003 64.40000000000002 95.806400000000011 20.375000000000004 75.700000000000003 102.37700000000002 33.328400000000009 191.00000000000003 108.05000000000001 0.0091594283488906029 5.9275000000000011 0.66840000000000011 25.466666666666669 0.50640000000000007 3.242833742833743
decision_type=2 2 2 2 2 2 2 2 2 2 2 2 2 2 2 2 2 2 2 2 2 2 2 2 2 2 2 2
left_child=1 5 -2 6 15 10 14 8 21 -10 -1 22 20 -14 -4 23 17 -16 19 -17 24 -8 -7 27 -9 -26 -6 -3
right_child=2 4 3 -5 26 11 7 12 9 -11 -12 -13 13 -15 16 18 -18 -19 -20 -21 -22 -23 -24 -25 25 -27 -28 -29
leaf_value=0.67828943241726247 -0.53260300785303116 -0.49978487253189052 0.15703613923655615 -0.30561163984239104 -0.56671642780303944 -0.60527958422899231 -0.49183354888643527 0.79968676567077612 0.55453887445231265 -0.053484322254856435 0.021124668763234065 0.22992783069610595 -0.13154968946344323 0.45824357693394024 0.11744824290275571 -0.21815449724856173 0.9218061828613282 0.6215900182723999 -0.45772064914080235 0.34942403227090835 0.16670945205471732 -0.042455868881482346 -0.16887752016385396 -0.2604398562149568 0.64791030168533315 0.3256504446268082 -0.78998852874103354 -0.69723997831344608
leaf_weight=11.000000000000002 9.9999999999999982 10.000000000000005 18 15.999999999999998 10.000000000000002 10.000000000000002 14.000000000000002 10.000000000000002 12.000000000000002 18 12.999999999999998 9.9999999999999982 18.000000000000004 11.999999999999998 10.000000000000002 19.000000000000004 9.9999999999999982 17 10.999999999999998 9.9999999999999982 10.999999999999998 12.999999999999998 11.999999999999998 10.999999999999998 10.000000000000002 9.9999999999999982 19 9.9999999999999982
leaf_count=11 10 10 18 16 10 10 14 10 12 18 13 10 18 12 10 19 10 17 11 10 11 13 12 11 10 10 19 10
internal_value=-0.0129316 -0.251551 0.165176 0.200241 -0.411977 0.0349242 0.244468 0.163683 -0.0306289 0.189725 0.322325 -0.180626 0.31968 0.104368 0.432477 -0.289024 0.566475 0.434871 -0.142141 -0.0224378 0.477226 -0.275467 -0.367242 -0.478551 0.591083 0.48678 -0.712998 -0.598512
internal_weight=365 156 209 199 100 56 183 128 57 30 24 32 71 30 55 71 37 27 40 29 41 27 22 31 30 20 29 20
internal_count=365 156 209 199 100 56 183 128 57 30 24 32 71 30 55 71 37 27 40 29 41 27 22 31 30 20 29 20
is_linear=0
shrinkage=0.05


Tree=13
num_leaves=30
num_cat=0
split_feature=113 15 57 41 42 87 46 27 113 2 9 10 37 137 18 33 20 42 136 36 75 100 27 137 59 86 15 57 54
split_gain=5600.01 2660.67 1846.02 1781.53 1674.46 1407.67 1447.51 1397.69 1366.31 1110.24 1053.07 1037.63 995.807 691.534 623.422 876.75 672.429 604.488 787.373 597.496 560.664 545.579 457.734 378.252 371.745 348.205 268.918 239.519 194.799
threshold=2.5000000000000004 0.43600000000000005 -2.299799999999999 171.6045 10.955150000000001 474.66000000000003 31.797450000000001 53.600000000000001 1.5000000000000002 107.05000000000001 11.950000000000001 84.500000000000014 0.95080000000000009 0.53640571272855142 0.31650000000000006 0.58105000000000018 1.7500000000000002 8.2797250000000009 0.015630338235294104 20.500000000000004 5.4522000000000013 3.8448412698412704 98.90000000000002 0.6540392464487782 0.37824999999999981 0.010153047735752952 0.52250000000000008 6.5771499999999996 0.64615000000000011
decision_type=2 2 2 2 2 2 2 2 2 2 2 2 2 2 2 2 2 2 2 2 2 2 2 2 2 2 2 2 2
left_child=1 -1 -2 9 5 7 -7 -4 22 -3 -8 -11 19 -10 16 -16 24 18 -17 -12 -14 25 26 -22 -9 -15 -5 -23 -24
right_child=2 3 4 8 -6 6 10 14 13 11 12 -13 20 21 15 17 -18 -19 -20 -21 23 27 28 -25 -26 -27 -28 -29 -30
leaf_value=0.51073291084983141 -0.50597284764051442 0.33527999187509222 -0.19685315847396853 -0.27406045624188008 -0.28433233236565308 -0.45033600716428324 0.61578573747114707 0.63087472251305965 0.15725483000278473 -0.53604129155476876 0.052610900749762837 0.15358058720827106 0.48865043265478952 -0.33560696482658381 0.63866649667421982 0.6605364522337912 0.8924956262111664 -0.1465869849920273 0.10140029481451218 -0.47069797277450559 -0.067128738202154634 -0.62897086491187393 -0.53771337747573833 0.31888752092014661 0.23730905254681908 0.072055447897450484 -0.58987076832697949 -0.29764092952013016 -0.81295027467939596
leaf_weight=10.999999999999998 9.9999999999999982 14.999999999999998 9.9999999999999982 14.000000000000002 17 10.999999999999998 10.999999999999998 12.000000000000002 9.9999999999999982 12.000000000000002 12.000000000000002 9.9999999999999982 13.999999999999998 10.000000000000002 14.999999999999998 10.000000000000002 11.999999999999998 9.9999999999999982 17 9.9999999999999982 15.000000000000002 12.000000000000002 10.000000000000002 10.999999999999998 11.999999999999998 10.999999999999998 12.999999999999998 9.9999999999999982 18
leaf_count=11 10 15 10 14 17 11 11 12 10 12 12 10 14 10 15 10 12 10 17 10 15 12 10 11 12 11 13 10 18
internal_value=-0.012285 -0.238973 0.156918 -0.295847 0.190229 0.234556 0.08436 0.363295 -0.398429 0.00358136 0.164931 -0.222577 0.0849401 -0.217264 0.426948 0.316217 0.586893 0.185495 0.308488 -0.185257 0.233548 -0.304361 -0.573007 0.0961858 0.434092 -0.12207 -0.426117 -0.478366 -0.714651
internal_weight=365 156 209 145 199 182 84 98 108 37 73 22 62 53 88 52 36 37 27 22 40 43 55 26 24 21 27 22 28
internal_count=365 156 209 145 199 182 84 98 108 37 73 22 62 53 88 52 36 37 27 22 40 43 55 26 24 21 27 22 28
is_linear=0
shrinkage=0.05


Tree=14
num_leaves=28
num_cat=0
split_feature=27 40 117 42 27 28 51 60 28 114 100 58 107 36 39 31 23 28 15 26 60 87 100 33 34 30 13
split_gain=4899.47 2449.77 1802.71 2247.17 1478.04 1149.41 1236.27 1044.76 1012.76 983.018 1018.34 689.34 766.424 810.034 723.681 569.815 568.307 507.19 496.959 428.303 618.83 395.934 393.515 444.369 260.143 173.321 44.5332
threshold=96.90000000000002 2.8921600000000005 1.0000000180025095e-35 6.6647850000000011 53.600000000000001 0.4794472600000001 3.3288000000000006 3.1356000000000006 1.6387454600000002 1.0000000180025095e-35 3.8448412698412704 12.889650000000001 0.0027864746824515503 4.5000000000000009 92.147750000000016 44.500000000000007 4.2777350000000007 1.7731781950000001 0.50150000000000017 2012.5000000000002 0.86860000000000037 468.00000000000006 3.7220077220077226 0.6493000000000001 0.34915000000000007 99.500000000000014 142.50000000000003
decision_type=2 2 2 2 2 2 2 2 2 2 2 2 2 2 2 2 2 2 2 2 2 2 2 2 2 2 2
left_child=2 -2 3 5 15 -1 -7 17 19 10 -3 12 13 24 -14 -4 -15 22 21 -8 -21 -11 23 -5 -6 -25 -20
right_child=1 9 4 7 11 6 8 -9 -10 18 -12 -13 14 16 -16 -17 -18 -19 26 20 -22 -23 -24 25 -26 -27 -28
leaf_value=0.58136884570121772 0.28177365671311105 0.12606991346065813 -0.42635172486305217 -0.014484222121536728 0.27651037454605093 -0.42921153306961063 -0.14387214660644532 0.11646229376395544 0.62973208844661721 -0.14890923202037806 -0.48848653520856589 -0.08535266876220704 0.31063054462566098 0.29963720136632527 0.77198432193082933 0.10741562128067017 -0.092419785829751119 -0.015491146391088312 -0.62054254091702965 -0.079296624389561712 0.43026115963092215 -0.59384423017501831 -0.59367655569221822 -0.27550704926252356 0.61041143962315159 -0.5698888564109803 -0.74198897944556341
leaf_weight=13.999999999999998 13.999999999999998 13.000000000000002 10.000000000000002 10.000000000000002 10.000000000000002 9.9999999999999982 14.999999999999998 18 9.9999999999999982 10.000000000000002 13.999999999999998 9.9999999999999982 17 18 17 9.9999999999999982 19 10.999999999999998 13.000000000000002 11.000000000000002 12.999999999999998 9.9999999999999982 15.999999999999998 10.000000000000002 13.999999999999998 9.9999999999999982 18
leaf_count=14 14 13 10 10 10 10 15 18 10 10 14 10 17 18 17 10 19 11 13 11 13 10 16 10 14 10 18
internal_value=-0.0116708 -0.327233 0.0946727 -0.0234074 0.234479 0.174074 0.0774281 -0.215623 0.180824 -0.436542 -0.192589 0.309517 0.351082 0.245055 0.541307 -0.159468 0.0983106 -0.320492 -0.565694 0.0657192 0.196714 -0.371377 -0.393427 -0.286627 0.471286 -0.422698 -0.69106
internal_weight=365 92 273 148 125 73 59 75 49 78 27 105 95 61 34 20 37 57 51 39 24 20 46 30 24 20 31
internal_count=365 92 273 148 125 73 59 75 49 78 27 105 95 61 34 20 37 57 51 39 24 20 46 30 24 20 31
is_linear=0
shrinkage=0.05


Tree=15
num_leaves=27
num_cat=0
split_feature=113 47 113 54 40 86 53 74 88 14 4 79 25 1 33 137 36 100 62 26 95 136 0 88 9 40
split_gain=6344.94 2558 2041.84 1495.59 1456.9 1397.35 1217.91 1052.25 1027.47 939.273 869.43 814.165 795.346 701.661 733.231 678.317 693.544 671.455 578.081 521.308 451.332 418.08 410.268 255.23 222.813 34.1379
threshold=3.5000000000000004 3.4999300000000004 1.5000000000000002 0.14500000000000005 2.6143050000000003 0.0097110697635409016 0.89240000000000019 52.552500000000002 24.150000000000002 346.00000000000006 49.150000000000013 0.37451477272727279 2.4500000000000006 78.350000000000009 0.66585000000000016 0.64507878710522026 16.500000000000004 3.2236111111111119 0.75965000000000016 2013.5000000000002 0.30100000000000005 0.015918236111111105 34.500000000000007 24.950000000000003 15.15 3.9369700000000005
decision_type=2 2 2 2 2 2 2 2 2 2 2 2 2 2 2 2 2 2 2 2 2 2 2 2 2 2
left_child=1 5 21 -4 -2 10 22 -8 18 12 -1 -7 17 -10 -15 16 -14 -5 -9 -11 -13 24 23 -6 -3 -23
right_child=4 2 3 9 6 11 7 8 13 19 -12 20 15 14 -16 -17 -18 -19 -20 -21 -22 25 -24 -25 -26 -27
leaf_value=0.21833819642662997 -0.31427385330200197 -0.19332201421260828 0.43432695388793952 -0.22348041057586665 0.73301101260715074 0.58856621424357092 0.67080090284347538 0.55606777295470233 -0.3962088990211487 -0.64112578891217697 -0.35764476782397225 0.33731775879859915 0.16816869475520577 0.28419400422196639 -0.19268323703935106 -0.53051847815513609 -0.30578246277413873 0.29285971496035074 0.085209813984957611 -0.19398654157465156 -0.1156180668960918 -0.60092305966785964 0.2968171052634716 0.45855083856731654 -0.51942442709749403 -0.70948497772216801
leaf_weight=10.000000000000002 9.9999999999999982 10.000000000000002 9.9999999999999982 10.000000000000002 18 14.999999999999998 9.9999999999999982 16.000000000000004 9.9999999999999982 16.000000000000004 19 11.000000000000002 12.999999999999998 19 13.999999999999998 13.999999999999998 19 17 10.999999999999998 10.999999999999998 10.999999999999998 14.000000000000002 15.999999999999998 15.999999999999998 10.999999999999998 14.999999999999998
leaf_count=10 10 10 10 10 18 15 10 16 10 16 19 11 13 19 14 14 19 17 11 11 11 14 16 16 11 15
internal_value=0.0027795 -0.161073 -0.269111 -0.148688 0.267284 0.100838 0.312019 0.19103 0.122492 -0.20699 -0.15903 0.304519 -0.113796 -0.0293016 0.0818824 -0.240238 -0.11324 0.101623 0.364237 -0.458958 0.11085 -0.534042 0.505602 0.603853 -0.364138 -0.657076
internal_weight=366 226 160 110 140 66 130 80 70 100 29 37 73 43 33 46 32 27 27 27 22 50 50 34 21 29
internal_count=366 226 160 110 140 66 130 80 70 100 29 37 73 43 33 46 32 27 27 27 22 50 50 34 21 29
is_linear=0
shrinkage=0.05


Tree=16
num_leaves=30
num_cat=0
split_feature=113 75 87 28 40 75 58 85 25 60 94 83 106 29 16 25 59 11 112 107 50 55 11 4 35 112 65 99 49
split_gain=5726.3 2432.39 1959.07 1476.07 1314.86 1484.46 1562.11 1299.99 928.953 983.195 755.16 869.439 635.276 618.022 611.246 670.074 593.738 758.659 530.498 485.782 467.576 326.984 298.91 219.14 214.73 151.31 198.495 64.0797 39.3717
threshold=3.5000000000000004 7.756612500000001 389.52000000000004 1.9529308500000002 2.6143050000000003 4.8978033333333348 11.721450000000003 0.06941951951951951 3.3500000000000001 3.0041500000000001 0.8818526225061164 0.048692329093799655 20.650000000000006 59.500000000000007 59.000000000000007 2.3500000000000001 -0.53239999999999987 141.50000000000003 0.05782305555555551 0.0027453011749571502 4.536150000000001 12.565100000000003 127.50000000000001 52.95000000000001 26.500000000000004 0.081633571428571361 0.27142499999999986 40.050000000000004 2.2639000000000005
decision_type=2 2 2 2 2 2 2 2 2 2 2 2 2 2 2 2 2 2 2 2 2 2 2 2 2 2 2 2 2
left_child=1 2 7 8 -2 18 16 -1 9 14 12 -12 -9 -3 20 -16 -7 21 23 -19 27 -18 -15 -6 -10 26 28 -4 -24
right_child=4 13 3 -5 5 6 -8 10 24 -11 11 -13 -14 22 15 -17 17 19 -20 -21 -22 -23 25 -25 -26 -27 -28 -29 -30
leaf_value=-0.30282443111593071 -0.29856016129255297 -0.12810373678803444 -0.41678480714559546 0.39650786638259894 0.85222661495208729 -0.033394639504452546 -0.2342891719606188 0.40948746854608697 -0.38348308155934008 0.25844110324978831 0.83075229254635874 0.18657873272895814 -0.090772666136423763 -0.23644359648227692 0.23900843912904907 -0.31287822438911961 0.36289225419362375 0.018151741816351812 0.34204830560419297 0.40342242161432901 -0.11101254387335345 0.71857720102582667 -0.51124863624572736 0.54326262067664755 -0.69719937205314642 -0.6999064662239769 -0.32417615701754893 -0.58816122810045879 -0.65155491590499881
leaf_weight=10.999999999999998 9.9999999999999982 15.999999999999998 10.000000000000002 9.9999999999999982 12.000000000000002 11.999999999999998 18 11.000000000000002 12.000000000000002 11.999999999999998 11.000000000000002 9.9999999999999982 14.999999999999998 9.9999999999999982 11.000000000000002 10.999999999999998 12.000000000000002 18 18 14.999999999999998 10.999999999999998 13.999999999999998 10.000000000000002 10.999999999999998 9.9999999999999982 10.999999999999998 11.999999999999998 11.999999999999998 9.9999999999999982
leaf_count=11 10 16 10 10 12 12 18 11 12 12 11 10 15 10 11 11 12 18 18 15 11 14 10 11 10 11 12 12 10
internal_value=0.00264053 -0.153019 -0.0442748 -0.179464 0.25392 0.296418 0.181741 0.186479 -0.24418 -0.151615 0.300996 0.524003 0.120876 -0.400452 -0.241082 -0.0369349 0.287213 0.352421 0.545353 0.193275 -0.377179 0.554415 -0.482671 0.704461 -0.526081 -0.539933 -0.484942 -0.510263 -0.581402
internal_weight=366 226 157 99 140 130 89 58 89 67 47 21 26 69 55 22 71 59 41 33 33 26 53 23 22 43 32 22 20
internal_count=366 226 157 99 140 130 89 58 89 67 47 21 26 69 55 22 71 59 41 33 33 26 53 23 22 43 32 22 20
is_linear=0
shrinkage=0.05


Tree=17
num_leaves=28
num_cat=0
split_feature=113 41 27 27 28 75 26 44 75 58 69 10 49 112 2 7 64 61 39 31 112 34 45 70 82 34 40
split_gain=5167.99 2463.99 1535.6 1227.7 1075 970.57 983.492 1381.11 887.408 1548.31 842.499 720.866 654.12 560.32 542.685 532.297 470.702 639.093 516.568 465.953 511.37 357.824 316.065 265.725 237.097 209.841 137.168
threshold=3.5000000000000004 171.6045 96.90000000000002 44.70000000000001 0.47721744500000007 9.0816250000000007 2014.5000000000002 3.9513400000000005 4.8978033333333348 11.721450000000003 1.9000000000000004 76.500000000000014 1.3213000000000001 0.061782366071428556 113.75000000000001 15.750000000000002 8.4049999999999994 0.084950000000000012 92.880250000000018 27.500000000000004 0.05782305555555551 0.40170000000000006 6.7280750000000014 6.1500000000000012 0.025832531194295853 0.40585000000000004 3.9333200000000006
decision_type=2 2 2 2 2 2 2 2 2 2 2 2 2 2 2 2 2 2 2 2 2 2 2 2 2 2 2
left_child=1 4 5 -2 -1 6 10 21 19 16 12 15 -3 14 22 -6 17 18 -10 -5 25 -8 -4 -12 -19 -21 -15
right_child=3 2 13 8 11 -7 7 -9 9 -11 23 -13 -14 26 -16 -17 -18 24 -20 20 -22 -23 -24 -25 -26 -27 -28
leaf_value=0.57429271638393409 -0.26582572609186172 -0.31311477025349932 -0.25771643634025859 0.16263097718358041 -0.43434976935386643 -0.54343647404263418 0.093483247301157785 0.56542017050087456 0.23199683738251525 -0.22257471349504263 -0.57157149229730864 0.25366689900034356 0.1690357565879822 -0.43950121760368338 -0.01946668482075135 0.081546210497617733 0.61656432211399081 0.25370334386825555 0.65551062623659773 0.85987719058990442 0.28504109134276712 -0.24156661828358972 -0.61356535752614338 -0.234107158780098 -0.056652587465941907 0.55522298824328642 -0.6682818977456344
leaf_weight=11.999999999999998 10.999999999999998 12.000000000000002 13.000000000000002 9.9999999999999982 10.000000000000002 11.999999999999998 17 11.999999999999998 18.000000000000004 18 14.000000000000002 19 17 10.000000000000002 11.999999999999998 9.9999999999999982 9.9999999999999982 10.000000000000002 11.999999999999998 10.000000000000002 11.999999999999998 14.999999999999998 11.999999999999998 9.9999999999999982 15.999999999999998 12.999999999999998 19
leaf_count=12 11 12 13 10 10 12 17 12 18 18 14 19 17 10 12 10 10 10 12 10 12 15 12 10 16 13 19
internal_value=0.0025085 -0.145368 -0.234494 0.241224 0.160454 -0.119241 -0.0667638 0.107972 0.284461 0.188476 -0.211827 0.0331189 -0.0304748 -0.424834 -0.295857 -0.176402 0.30058 0.244155 0.401402 0.463633 0.549633 -0.0635714 -0.428524 -0.430961 0.0627151 0.687681 -0.589392
internal_weight=366 226 175 140 51 109 97 44 129 84 53 39 29 66 37 20 66 56 30 45 35 32 25 24 26 23 29
internal_count=366 226 175 140 51 109 97 44 129 84 53 39 29 66 37 20 66 56 30 45 35 32 25 24 26 23 29
is_linear=0
shrinkage=0.05


Tree=18
num_leaves=28
num_cat=0
split_feature=113 41 27 40 75 58 75 26 44 9 69 49 10 59 11 107 25 54 2 47 70 5 37 70 125 34 20
split_gain=4664.11 2223.75 1385.88 1132.03 1216.59 1265.97 875.94 887.602 1246.45 796.749 760.355 590.343 499.379 492.435 654.761 506.773 452.457 427.418 393.128 375.091 289.606 278.571 361.953 239.817 239.321 148.041 87.3248
threshold=3.5000000000000004 171.6045 96.90000000000002 2.6143050000000003 4.6602716666666675 11.721450000000003 9.0816250000000007 2014.5000000000002 3.9513400000000005 19.450000000000003 1.9000000000000004 1.3213000000000001 76.500000000000014 -0.53239999999999987 141.50000000000003 0.0027453011749571502 2.4500000000000006 0.73505000000000009 114.35000000000001 3.4999300000000004 1.3499999999999999 56.420000000000009 0.91240000000000021 6.1500000000000012 1.0000000180025095e-35 0.42055000000000003 2.3500000000000001
decision_type=2 2 2 2 2 2 2 2 2 2 2 2 2 2 2 2 2 2 2 2 2 2 2 2 2 2 2
left_child=1 9 6 -2 21 13 7 10 16 12 11 -3 -1 -6 20 -16 -9 18 19 -4 -15 -5 -23 -12 26 -18 -19
right_child=3 2 17 4 5 -7 -8 8 -10 -11 23 -13 -14 14 15 -17 25 24 -20 -21 -22 22 -24 -25 -26 -27 -28
leaf_value=-0.19401582218706609 -0.28347060948610309 -0.29745904207229606 -0.16963424373418082 0.712457553545634 -0.013500121579720423 -0.19062355443050988 -0.5162646458794673 0.21847282111644747 0.53714916240423916 0.42001901277237474 -0.54299291542598171 0.16058397152844597 0.19517070182106075 0.29644922137260427 0.0076544848711867083 0.38957569943740966 -0.045067673027515402 -0.68886466026306137 -0.010364856561645867 -0.59274264248934661 0.63555192666895255 0.18765990465879434 0.58151627608707979 -0.22240179896354678 -0.31661507427692415 -0.30555177529652916 -0.50060883868824357
leaf_weight=15.999999999999998 9.9999999999999982 12.000000000000002 10.000000000000005 11.999999999999998 12.999999999999998 19 11.999999999999998 9.9999999999999982 11.999999999999998 18 14.000000000000002 17 17 10.000000000000002 19 15.999999999999998 10.000000000000002 14.000000000000002 9.9999999999999982 10.999999999999998 17 10.000000000000002 13.999999999999998 9.9999999999999982 9.9999999999999982 11.999999999999998 10.999999999999998
leaf_count=16 10 12 10 12 13 19 12 10 12 18 14 17 17 10 19 16 10 14 10 11 17 10 14 10 10 12 11
internal_value=0.00238308 -0.1381 -0.222769 0.229163 0.268596 0.173938 -0.113279 -0.0634256 0.102573 0.152431 -0.201236 -0.0289511 0.00647421 0.266294 0.32496 0.182247 -0.0603928 -0.403593 -0.268392 -0.391262 0.509958 0.515759 0.417409 -0.409413 -0.523342 -0.18715 -0.606032
internal_weight=366 226 175 140 130 94 109 97 44 51 53 29 33 75 62 35 32 66 31 21 27 36 24 24 35 22 25
internal_count=366 226 175 140 130 94 109 97 44 51 53 29 33 75 62 35 32 66 31 21 27 36 24 24 35 22 25
is_linear=0
shrinkage=0.05


Tree=19
num_leaves=27
num_cat=0
split_feature=113 41 113 40 42 28 42 71 58 14 41 24 88 84 122 41 69 26 134 33 18 2 64 7 54 1
split_gain=4209.36 2006.93 1155.49 1021.66 1000.19 934.371 921.468 916.594 941.15 750.451 823.78 692.041 629.853 620.126 568.6 473.174 450.549 417.081 390.135 379.008 311.781 263.2 238.022 160.742 80.556 39.7969
threshold=3.5000000000000004 171.6045 1.5000000000000002 2.6143050000000003 5.1376350000000004 0.47721744500000007 11.123600000000001 9.1015416666666678 11.721450000000003 346.00000000000006 246.14400000000003 112.84750000000001 21.150000000000002 0.049585160427807411 1.1537963025982287 202.83100000000002 2.6500000000000008 2013.5000000000002 2765.6000000000008 0.66055000000000008 0.35950000000000004 120.45000000000002 2.755000000000003 15.350000000000003 0.91745000000000021 82.15000000000002
decision_type=2 2 2 2 2 2 2 2 2 2 2 2 2 2 2 2 2 2 2 2 2 2 2 2 2 2
left_child=1 5 11 -2 22 -1 9 -6 14 10 15 -3 -7 -14 18 -4 19 -11 20 -17 -9 24 -5 -20 25 -13
right_child=3 2 6 4 7 12 -8 8 -10 17 -12 21 13 -15 -16 16 -18 -19 23 -21 -22 -23 -24 -25 -26 -27
leaf_value=0.53063095360994339 -0.26929707825183868 -0.01272132381796837 0.16528091886464288 0.4017890338714305 0.5255895558525534 -0.25807072720848601 -0.51667084304186017 0.44953860690196346 -0.18717293111901534 -0.48573674389294202 0.39066740795969968 -0.39573744535446154 0.41236576988146845 -0.076008914984189546 0.44309519356802896 -0.24370375492356033 -0.33046838233345438 -0.092434304494124209 -0.13433971301867409 0.13295864506679422 0.089109906705562028 -0.25375812487909571 0.71781041838906035 0.10982371142932348 -0.61685279607772836 -0.53079396088918052
leaf_weight=11.999999999999998 9.9999999999999982 9.9999999999999982 17 13.000000000000002 17 12.999999999999998 12.999999999999998 12.000000000000002 19 14.000000000000002 11.999999999999998 10.000000000000002 13.000000000000002 12.999999999999998 19 11.000000000000002 19 12.999999999999998 13.000000000000002 17 11.999999999999998 10.999999999999998 10.999999999999998 13.999999999999998 15.999999999999998 11.999999999999998
leaf_count=12 10 10 17 13 17 13 13 12 19 14 12 10 13 13 19 11 19 13 13 17 12 11 11 14 16 12
internal_value=0.00226392 -0.131195 -0.211631 0.217705 0.255166 0.14481 -0.120002 0.189174 0.124915 -0.0699371 0.0105058 -0.391781 0.0260954 0.168178 0.209624 -0.0607745 -0.142539 -0.296369 0.122645 -0.0150159 0.269324 -0.469141 0.546632 -0.00773646 -0.531488 -0.469405
internal_weight=366 226 175 140 130 51 116 106 89 103 76 59 39 26 70 64 47 27 51 28 24 49 24 27 38 22
internal_count=366 226 175 140 130 51 116 106 89 103 76 59 39 26 70 64 47 27 51 28 24 49 24 27 38 22
is_linear=0
shrinkage=0.05


Tree=20
num_leaves=28
num_cat=0
split_feature=27 42 113 27 45 67 13 15 66 41 35 22 113 5 76 66 4 75 22 44 86 72 86 7 48 79 86
split_gain=3853.39 1478.65 1948.75 1497.82 1161.76 1145.67 1083.7 1030.5 933.25 825.061 616.655 728.893 592.048 562.788 614.472 759.092 461.496 391.36 358.015 339.891 333.117 305.415 501.376 241.599 153.143 69.0434 58.1773
threshold=96.90000000000002 6.3172200000000007 3.5000000000000004 46.900000000000006 5.7937250000000011 3.9500000000000033 206.50000000000003 0.58150000000000002 3.6354000000000002 176.21250000000003 29.500000000000004 2.5000000000000004 3.5000000000000004 62.440000000000005 78.625000000000014 5.524490000000001 52.350000000000001 9.0816250000000007 12.500000000000002 2.0036600000000004 0.009093044279392901 3.6049000000000002 0.0097474391841956519 13.050000000000002 3.0380050000000005 0.49755151515151513 0.010866835256399702
decision_type=2 2 2 2 2 2 2 2 2 2 2 2 2 2 2 2 2 2 2 2 2 2 2 2 2 2 2
left_child=1 3 13 -1 9 20 8 10 17 -2 11 -5 16 14 15 18 23 19 -3 -4 -6 -10 -23 -13 -16 26 -22
right_child=4 2 6 7 5 -7 -8 -9 21 -11 -12 12 -14 -15 24 -17 -18 -19 -20 -21 25 22 -24 -25 -26 -27 -28
leaf_value=-0.29015225172042847 0.31837132548292474 -0.022545629052015445 -0.19143199232908392 0.69440811177094774 -0.23757809427651494 0.10404489815235139 -0.29361298173666001 0.80626216888427737 0.66886139349503959 -0.25656614337976164 0.018666765250657736 0.46772950947284686 0.48830036677812272 -0.38973081786381569 -0.16989553069526495 -0.30049226501335702 -0.080748770066670014 0.36008794665336613 0.33070883005857471 0.1578703040381273 -0.56307292779286688 0.082363778948783856 0.55328023021037764 0.12815833786841144 -0.44024886965751647 -0.62089129024081768 -0.39978000044822698
leaf_weight=10.999999999999998 12.000000000000002 13.000000000000002 13.000000000000002 11.999999999999998 10.999999999999998 9.9999999999999982 9.9999999999999982 9.9999999999999982 10.999999999999998 12.999999999999998 19 10.000000000000002 19 19 11.000000000000002 11.999999999999998 13.999999999999998 9.9999999999999982 15.999999999999998 14.999999999999998 12.000000000000002 10.000000000000002 12.999999999999998 10.999999999999998 9.9999999999999982 18 9.9999999999999982
leaf_count=11 12 13 13 12 11 10 10 10 11 13 19 10 19 19 11 12 14 10 16 15 12 10 13 11 10 18 10
internal_value=0.0236854 0.116828 0.0222948 0.262196 -0.267657 -0.385305 0.194121 0.326152 0.261862 0.0194038 0.269669 0.341927 0.263597 -0.151653 -0.0786935 0.0339595 0.141616 0.0915873 0.172353 -0.00430576 -0.481256 0.452169 0.348534 0.289859 -0.298635 -0.548268 -0.488849
internal_weight=355 269 163 106 86 61 82 95 72 25 85 66 54 81 62 41 35 38 29 28 51 34 23 21 21 40 22
internal_count=355 269 163 106 86 61 82 95 72 25 85 66 54 81 62 41 35 38 29 28 51 34 23 21 21 40 22
is_linear=0
shrinkage=0.05


Tree=21
num_leaves=30
num_cat=0
split_feature=27 40 29 68 113 45 28 67 4 75 94 48 69 9 79 86 74 74 43 86 79 27 96 30 26 102 32 85 101
split_gain=3477.68 1863.99 1348.44 1343.78 1296.65 1929.04 825.486 670.563 641.46 885.592 614.841 761.651 570.466 471.734 580.946 574.12 523.453 633.871 465.167 430.66 364.57 341.432 286.728 247.594 185.13 173.802 94.4104 50.168 58.6894
threshold=96.90000000000002 2.9502400000000004 126.50000000000001 -8.5500000000000096 3.5000000000000004 7.9860700000000007 0.39214994000000009 3.9500000000000033 51.45000000000001 4.0909428750000005 0.60043706729459123 3.0380050000000005 4.2500000000000027 11.050000000000002 0.38133827985739754 0.009093044279392901 57.288333333333341 58.407500000000006 2.0256750000000006 0.009093044279392901 0.32969868421052634 78.90000000000002 0.3756277494823036 100.50000000000001 2012.5000000000002 0.32830000000000009 161.50000000000003 0.11925819128787876 0.68195000000000017
decision_type=2 2 2 2 2 2 2 2 2 2 2 2 2 2 2 2 2 2 2 2 2 2 2 2 2 2 2 2 2
left_child=2 -2 3 -1 5 6 -5 19 18 -10 -7 -12 -4 -6 20 -16 22 -18 -8 25 -15 -20 24 -11 -17 -3 27 -21 -29
right_child=1 7 12 4 13 10 8 -9 9 23 11 -13 -14 14 15 16 17 -19 21 26 -22 -23 -24 -25 -26 -27 -28 28 -30
leaf_value=-0.39073077548633922 0.27361753178494319 -0.079842747151851634 -0.3856571263737148 0.59439080258210497 0.62639476895332347 -0.46205261230468753 0.025127636045217505 0.023023688197135926 -0.35358926504850391 0.021163845739581362 0.26003792746500526 -0.26805988798538843 0.085350031852722164 0.28733290774481629 -0.071733163110911852 0.15949954008683553 -0.16489256831506882 0.33033233976789883 0.24722927321087221 -0.46161680817604051 0.65504415768843438 0.65090731859207152 0.62634131193161013 0.36492243528366092 0.45674906730651854 -0.37463265511207289 -0.38329042033715682 -0.67738171490755938 -0.51001724481582644
leaf_weight=10.999999999999998 13.999999999999998 10.000000000000002 18.000000000000004 11.999999999999998 9.9999999999999982 14.999999999999998 10.000000000000002 9.9999999999999982 11.999999999999998 11.000000000000002 11.000000000000002 18 9.9999999999999982 14.000000000000002 15.999999999999998 11.000000000000005 12.000000000000002 13.999999999999998 11.000000000000002 10.000000000000002 12.999999999999998 9.9999999999999982 9.9999999999999982 9.9999999999999982 9.9999999999999982 9.9999999999999982 10.999999999999998 11.000000000000002 9.9999999999999982
leaf_count=11 14 10 18 12 10 15 10 10 12 11 11 18 10 14 16 11 12 14 11 10 13 10 10 10 10 10 11 11 10
internal_value=0.0225011 -0.254274 0.110987 0.149144 0.174965 0.0613006 0.213836 -0.35692 0.142482 -0.0109407 -0.202169 -0.0677469 -0.21744 0.298962 0.266218 0.192926 0.267217 0.101767 0.305802 -0.418201 0.464379 0.439457 0.405981 0.184858 0.301047 -0.227238 -0.509137 -0.553792 -0.597684
internal_weight=355 86 269 241 230 120 76 72 64 33 44 29 28 110 100 73 57 26 31 62 27 21 31 21 21 20 42 31 21
internal_count=355 86 269 241 230 120 76 72 64 33 44 29 28 110 100 73 57 26 31 62 27 21 31 21 21 20 42 31 21
is_linear=0
shrinkage=0.05


Tree=22
num_leaves=26
num_cat=0
split_feature=27 113 42 27 13 86 50 92 11 85 5 103 43 81 75 59 17 110 42 31 53 74 121 92 0
split_gain=3149.02 1660.89 1990.5 1367.82 847.462 792.611 972.62 921.109 617.701 597.066 491.403 550.661 576.44 488.697 459.226 483.39 428.16 396.173 327.491 376.239 347.238 306.55 217.155 213.603 88.0896
threshold=98.300000000000026 3.5000000000000004 6.3172200000000007 41.100000000000001 206.50000000000003 0.0096099193082252021 5.6208500000000008 51.45000000000001 230.50000000000003 0.095505714285714263 62.440000000000005 0.92920000000000014 4.2810200000000007 0.042800679117147654 4.5937512500000013 -0.18950000000000017 94.500000000000014 94.643850000000015 8.6232150000000001 50.500000000000007 0.90190000000000015 57.288333333333341 96.848736068185715 53.050000000000004 36.500000000000007
decision_type=2 2 2 2 2 2 2 2 2 2 2 2 2 2 2 2 2 2 2 2 2 2 2 2 2
left_child=1 2 5 -3 14 7 13 -1 10 -2 11 16 -13 -7 23 21 -4 -18 20 -20 -17 -16 -11 -5 -24
right_child=9 3 8 4 -6 6 -8 -9 -10 22 -12 12 -14 -15 15 18 17 -19 19 -21 -22 -23 24 -25 -26
leaf_value=0.24839482108751931 -0.069217814691364773 -0.33994752883911139 0.27028198633342981 0.63057772379655086 -0.14881553995338354 0.75305237770080546 -0.081080662310123452 -0.28212376892566682 -0.51265335083007812 -0.23101768851280213 -0.34940098126729335 0.014864887751173228 -0.3976032144493527 0.32534363370607883 0.23166227921843521 0.41479916985218346 -0.3020811212062835 0.12404023113970955 0.62913965497698099 0.23837835463610563 0.079440009515536467 -0.15984101310372353 -0.57443421588224508 0.36133832142633548 -0.39749824951092405
leaf_weight=18 15.999999999999998 9.9999999999999982 15.999999999999998 13.000000000000002 10.999999999999998 11.000000000000002 9.9999999999999982 14.999999999999998 10.999999999999998 9.9999999999999982 18 15.999999999999998 18 17 10.000000000000002 12.999999999999998 10.000000000000002 11.999999999999998 14.000000000000002 10.999999999999998 19 9.9999999999999982 17.000000000000004 17 11.999999999999998
leaf_count=18 16 10 16 13 11 11 10 15 11 10 18 16 18 17 10 13 10 12 14 11 19 10 17 17 12
internal_value=0.021376 0.0851384 -0.016351 0.221515 0.269096 0.186519 0.3422 0.00725001 -0.158963 -0.326419 -0.115734 -0.0573172 -0.203501 0.493372 0.312059 0.247404 0.0734785 -0.0696513 0.321612 0.457205 0.21568 0.0359106 -0.431937 0.478009 -0.501219
internal_weight=355 300 172 128 118 71 38 33 101 55 90 72 34 28 107 77 38 22 57 25 32 20 39 30 29
internal_count=355 300 172 128 118 71 38 33 101 55 90 72 34 28 107 77 38 22 57 25 32 20 39 30 29
is_linear=0
shrinkage=0.05


Tree=23
num_leaves=28
num_cat=0
split_feature=27 40 42 113 27 15 29 66 67 35 22 39 71 66 18 75 48 113 50 46 44 61 90 9 20 9 100
split_gain=2845.42 1593.77 1138.74 1417.62 1193.59 848.764 794.553 754.392 566.402 510.723 613.542 486.363 477.295 662.933 371.403 368.274 350.856 307.604 335.795 276.063 272.274 239.655 170.704 122.474 215.572 115.841 44.8039
threshold=96.90000000000002 2.9502400000000004 6.3172200000000007 3.5000000000000004 46.900000000000006 0.58150000000000002 131.50000000000003 3.6354000000000002 3.9500000000000033 29.500000000000004 2.5000000000000004 98.66500000000002 12.379866666666668 5.524490000000001 0.28850000000000003 9.0816250000000007 1.1482500000000002 3.5000000000000004 3.9705500000000007 31.507150000000003 1.8777600000000001 0.3221 117.85000000000001 17.450000000000003 2.2500000000000004 17.450000000000003 3.7784011220196358
decision_type=2 2 2 2 2 2 2 2 2 2 2 2 2 2 2 2 2 2 2 2 2 2 2 2 2 2 2
left_child=2 -2 4 12 -1 9 7 15 16 10 -6 17 13 14 -4 20 -3 18 -12 -14 -5 -9 25 24 -18 -21 -25
right_child=1 8 3 6 5 -7 -8 21 -10 -11 11 -13 19 -15 -16 -17 23 -19 -20 22 -22 -23 -24 26 -26 -27 -28
leaf_value=-0.26515623493628071 0.25808245795113699 -0.1251722168516029 0.37493655949831001 -0.21313927715474904 0.62289636482795085 0.72073210716247571 -0.25369027316570286 0.25028454740842182 0.024228475093841555 0.0053193266454495888 0.36524150460958471 -0.014315966963768008 -0.022422376871109012 -0.30144310994790152 -0.0090800835805780744 0.33471707403659823 -0.51014233997889924 0.50834890156984336 -0.008810063749551773 -0.11719834260642521 0.10260779611352418 0.52089118493927855 -0.48275483955036513 -0.4541284691203723 -0.23733560343583426 -0.3578655526041985 -0.59683582566001203
leaf_weight=10.999999999999998 13.999999999999998 10.999999999999998 10.000000000000002 11.000000000000002 11.999999999999998 9.9999999999999982 9.9999999999999982 14.999999999999998 9.9999999999999982 19 15.000000000000002 14.999999999999998 9.9999999999999982 12.999999999999998 17 9.9999999999999982 14.000000000000002 13.999999999999998 9.9999999999999982 10.000000000000005 18 18 10.999999999999998 11.000000000000002 14.999999999999998 9.9999999999999982 10.999999999999998
leaf_count=11 14 11 10 11 12 10 10 15 10 19 15 15 10 13 17 10 14 14 10 10 18 18 11 11 15 10 11
internal_value=0.0203072 -0.230048 0.100346 0.0173869 0.227916 0.285009 0.163939 0.221943 -0.324962 0.233747 0.299506 0.227642 -0.130974 -0.00809391 0.133148 0.0730661 -0.381283 0.320703 0.215621 -0.250858 -0.0171583 0.397888 -0.324547 -0.436522 -0.369035 -0.237532 -0.525482
internal_weight=355 86 269 163 106 95 82 72 72 85 66 54 81 40 27 39 62 39 25 41 29 33 31 51 29 20 22
internal_count=355 86 269 163 106 95 82 72 72 85 66 54 81 40 27 39 62 39 25 41 29 33 31 51 29 20 22
is_linear=0
shrinkage=0.05


Tree=24
num_leaves=26
num_cat=0
split_feature=113 42 13 9 41 9 113 71 42 113 24 61 5 103 41 30 75 70 42 136 11 115 1 71 46
split_gain=2476.82 1770.76 805.904 687.821 731.75 679.824 902.852 569.263 660.679 457.913 448.995 418.47 408.087 511.099 390.144 386.034 381.775 386.711 296.465 259.821 218.533 203.469 196.493 138.368 39.6709
threshold=3.5000000000000004 6.3005200000000015 206.50000000000003 18.650000000000002 210.09750000000003 21.900000000000002 1.5000000000000002 11.856285000000002 8.6232150000000001 1.5000000000000002 116.4115 0.52710000000000001 60.405000000000008 0.93440000000000012 182.95000000000002 90.500000000000014 4.2165551666666676 7.1499999999999995 8.6232150000000001 0.019378656277056202 139.50000000000003 1.0000000180025095e-35 84.550000000000026 14.075725 30.708350000000003
decision_type=2 2 2 2 2 2 2 2 2 2 2 2 2 2 2 2 2 2 2 2 2 2 2 2 2
left_child=1 5 3 16 -5 6 14 8 15 24 -8 -12 13 -11 -1 -3 20 18 22 -20 -2 -10 23 -18 -9
right_child=2 7 -4 4 -6 -7 10 9 21 12 11 -13 -14 -15 -16 -17 17 -19 19 -21 -22 -23 -24 -25 -26
leaf_value=0.011096666753292081 0.28542147696018211 -0.12834447405555027 -0.18043379038572313 -0.30607907548546787 0.28489005148410795 0.36921440073185496 -0.062005783830370226 -0.35478469610214225 -0.35800024680793285 0.095023195983635067 0.44027610930668948 0.04449021111835133 -0.39185125959270145 -0.27677760030093945 -0.37140031278133395 0.25179348482805142 0.43938442468643174 -0.013188946934846733 0.60524484623562191 0.26158739761872724 0.59145568268639703 -0.078652762079780725 0.076661198630052454 0.17635566502809527 -0.47781951929393573
leaf_weight=12.000000000000002 10.000000000000002 11.000000000000002 12.999999999999998 11.000000000000002 9.9999999999999982 18 13.999999999999998 10.000000000000002 15.999999999999998 18 17.000000000000004 10.999999999999998 17 19 14.999999999999998 17 10.000000000000002 12.999999999999998 11.000000000000002 10.999999999999998 13.999999999999998 11.000000000000002 17 9.9999999999999982 19
leaf_count=12 10 11 13 11 10 18 14 10 16 18 17 11 17 19 15 17 10 13 11 11 14 11 17 10 19
internal_value=0.0192919 -0.0810965 0.193041 0.234538 -0.0246652 0.0955634 0.0241762 -0.192469 -0.0677179 -0.275135 0.169191 0.284789 -0.189071 -0.0959015 -0.201402 0.102454 0.291239 0.233671 0.288064 0.433416 0.463941 -0.244192 0.201639 0.30787 -0.435394
internal_weight=355 225 130 117 21 87 69 138 55 83 42 28 54 37 27 28 96 72 59 22 24 27 37 20 29
internal_count=355 225 130 117 21 87 69 138 55 83 42 28 54 37 27 28 96 72 59 22 24 27 37 20 29
is_linear=0
shrinkage=0.05


Tree=25
num_leaves=27
num_cat=0
split_feature=114 47 75 41 77 108 35 2 33 48 136 18 23 96 117 19 100 103 24 2 12 64 18 63 44 43
split_gain=2136.66 1345.27 1777.79 1130.7 837.797 922.171 767.054 726.765 630.194 618.958 588.902 601.723 544.91 472.675 514.101 461.406 406.913 380.802 343.691 331.397 309.899 276.463 151.935 116.63 102.589 58.5893
threshold=1.0000000180025095e-35 0.22272250000000002 5.199801250000001 171.6045 21.275000000000002 1.2500000000000002 17.500000000000004 112.35000000000001 0.64555000000000018 1.3725950000000002 0.017571282625482604 0.35350000000000004 6.0307650000000006 0.35969865143556984 1.0000000180025095e-35 5.4500000000000011 3.5353174603174606 0.88730000000000009 128.17150000000004 111.15000000000002 0.69750000000000012 2.2800000000000016 0.41150000000000003 1.4649999999999965 2.3474500000000007 3.4203050000000004
decision_type=2 2 2 2 2 2 2 2 2 2 2 2 2 2 2 2 2 2 2 2 2 2 2 2 2 2
left_child=1 -1 10 17 5 -4 9 -7 -9 -6 13 19 18 16 -15 20 -3 -2 -11 -12 -8 -10 24 -22 -5 -26
right_child=3 2 4 22 6 7 15 8 21 12 11 -13 -14 14 -16 -17 -18 -19 -20 -21 23 -23 -24 -25 25 -27
leaf_value=-0.51620876908302316 -0.12588856796423592 0.35047594262287013 -0.31335193514823917 -0.30788915078890955 0.31479266413620544 0.55268081525961565 -0.10523278523575177 0.34932912517996395 -0.21827569256226217 -0.11182454077428894 0.4400693710033709 -0.12566924626007678 -0.33980923615969144 -0.045117195086045697 0.41932522356510155 -0.0014359994729359945 0.74552077813581985 0.26142634099180045 0.19306446893347637 0.057212478863075379 -0.520213941165379 0.10877892162118639 -0.18293571710586548 -0.31223366100054523 -0.55545235872268661 -0.40450618929333154
leaf_weight=9.9999999999999982 15.000000000000002 16.000000000000004 9.9999999999999982 19 13.999999999999998 11.999999999999998 10.999999999999998 17 12.000000000000002 19 13.000000000000002 15.999999999999998 12.999999999999998 11 13 14.999999999999998 10.999999999999998 10.999999999999998 18 9.9999999999999982 14.000000000000002 13.999999999999998 9.9999999999999982 12.999999999999998 10.000000000000002 18
leaf_count=10 15 16 10 19 14 12 11 17 12 19 13 16 13 11 13 15 11 11 18 10 14 14 10 13 10 18
internal_value=-0.0122856 0.053345 0.0742845 -0.235271 -0.0156056 0.128321 -0.0955646 0.208625 0.112609 0.0209386 0.256062 0.109803 -0.0613405 0.367907 0.206456 -0.236248 0.51142 0.0379754 0.0364998 0.27361 -0.328937 -0.0421694 -0.35991 -0.420075 -0.397564 -0.458416
internal_weight=365 282 272 83 182 65 117 55 43 64 90 39 50 51 24 53 27 26 37 23 38 26 57 27 47 28
internal_count=365 282 272 83 182 65 117 55 43 64 90 39 50 51 24 53 27 26 37 23 38 26 57 27 47 28
is_linear=0
shrinkage=0.05


Tree=26
num_leaves=29
num_cat=0
split_feature=27 58 45 21 102 13 35 16 11 136 17 12 15 17 45 106 58 116 18 121 8 109 64 136 56 3 39 44
split_gain=2037.54 1030.94 1329.81 860.44 880.268 961.568 837.048 903.712 723.748 672.513 617.265 614.819 581.774 538.67 485.129 474.204 436.448 346.153 338.919 314.575 308.368 267.1 255.862 234.272 205.539 136.669 73.2122 29.0389
threshold=99.100000000000009 0.63235000000000008 5.5841700000000012 64.850000000000009 0.29430000000000006 156.50000000000003 11.500000000000002 17.500000000000004 152.50000000000003 0.017421718327702704 185.00000000000003 0.80550000000000022 0.53650000000000009 121.00000000000001 7.1332350000000009 24.400000000000006 12.889650000000001 1.0000000180025095e-35 0.40450000000000008 96.848736068185715 9.8500000000000032 0.95000000000000007 2.755000000000003 0.013975633333333253 9.330230000000002 26.650000000000002 93.395300000000006 3.0084300000000002
decision_type=2 2 2 2 2 2 2 2 2 2 2 2 2 2 2 2 2 2 2 2 2 2 2 2 2 2 2 2
left_child=1 3 17 4 5 18 9 8 -8 12 11 -11 19 25 15 21 24 22 -1 -4 -10 -6 -3 -2 -15 -9 -16 -25
right_child=23 2 6 -5 14 -7 7 13 20 10 -12 -13 -14 16 26 -17 -18 -19 -20 -21 -22 -23 -24 27 -26 -27 -28 -29
leaf_value=0.47645264705022172 -0.18841630766789119 0.29064265857724586 0.6684826779365538 -0.51325569477948274 -0.013900581300258633 -0.16126743835561419 0.41815457877569967 -0.2538587455238614 -0.24691011141985647 -0.1120044729926369 -0.28436774636308354 0.40550767978032431 0.015181141549890692 -0.054330448304406469 -0.40758226394653313 0.15299640316516161 0.22467332243919375 0.1085546503464381 0.10066532276570797 0.30130710580519271 0.13672440539706837 -0.36378764361143112 0.57396292924880987 -0.52406534194946275 -0.32866671573032036 -0.48937162702733822 -0.23292517364025117 -0.41250717980521068
leaf_weight=15.000000000000002 11.999999999999998 17 10.000000000000002 10.999999999999998 10.000000000000002 17 13.999999999999998 14.000000000000002 10.000000000000002 11.000000000000002 11.999999999999998 11.999999999999998 10.999999999999998 18.000000000000004 15.000000000000002 15.999999999999998 9.9999999999999982 11.999999999999998 9.9999999999999982 13.999999999999998 10.999999999999998 11.999999999999998 14.999999999999998 10.000000000000002 10.999999999999998 10.999999999999998 9.9999999999999982 13.999999999999998
leaf_count=15 12 17 10 11 10 17 14 14 10 11 12 12 11 18 15 16 10 12 10 14 11 12 15 10 11 11 10 14
internal_value=-0.0116713 0.0274065 0.0927237 -0.0925295 -0.0484534 0.128855 0.028977 -0.0645922 0.139687 0.161311 0.00633229 0.158002 0.316289 -0.176307 -0.166659 -0.0541188 -0.0601679 0.337569 0.326138 0.454297 -0.0459587 -0.204748 0.423449 -0.368799 -0.158389 -0.357484 -0.337719 -0.45899
internal_weight=365 329 213 116 105 42 169 99 35 70 35 23 35 64 63 38 39 44 25 24 21 22 32 36 29 25 25 24
internal_count=365 329 213 116 105 42 169 99 35 70 35 23 35 64 63 38 39 44 25 24 21 22 32 36 29 25 25 24
is_linear=0
shrinkage=0.05


Tree=27
num_leaves=29
num_cat=0
split_feature=58 45 36 87 26 110 70 107 102 60 33 113 26 74 40 13 9 73 121 134 12 73 18 8 77 25 40 120
split_gain=1781.14 1273.54 859.952 920.64 791.367 1046.73 694.878 689.619 641.381 568.179 706.565 523.019 521.819 427.909 408.079 380.399 301.459 292.606 286.494 242.628 279.364 232.296 212.329 203.403 202.652 168.817 78.4304 32.6632
threshold=0.63235000000000008 5.5841700000000012 15.500000000000002 389.52000000000004 2013.5000000000002 95.695450000000008 1.9500000000000013 0.0015453254759450503 0.44840000000000008 2.5560500000000004 0.67910000000000015 3.5000000000000004 2016.5000000000002 51.028333333333343 3.7777250000000007 131.50000000000003 17.450000000000003 0.75130000000000019 96.848736068185715 2804.2000000000003 0.80650000000000011 1.8009000000000002 0.38850000000000007 9.1500000000000004 22.412500000000005 3.1500000000000008 3.5280200000000006 94.046922667907467
decision_type=2 2 2 2 2 2 2 2 2 2 2 2 2 2 2 2 2 2 2 2 2 2 2 2 2 2 2 2
left_child=4 18 6 15 5 11 8 -7 -3 19 -11 16 14 -6 -8 -4 -1 -15 -2 -5 -21 -9 -16 -19 -20 -12 -25 -28
right_child=1 2 3 9 13 7 12 21 -10 10 25 -13 -14 17 22 -17 -18 23 24 20 -22 -23 -24 26 -26 -27 27 -29
leaf_value=-0.11862156902040755 0.54167499108747996 0.53398669765276052 -0.027277458906173696 -0.43300282756487535 0.021827931837602097 -0.1513839383016933 0.15569289644559225 0.14878315120935434 0.02934238210320473 0.31079117493195968 -0.041492757472124955 0.10343549508940092 0.3383734621784904 -0.084364787827838558 -0.055211651325225819 0.39027419897417226 -0.42439560451005631 -0.57090402364730841 0.35338808078514905 -0.0089574261145158231 -0.37410537370480601 0.46932372588377735 -0.35265113562345507 -0.21786465919934789 0.10268395372799465 -0.31850393468683419 -0.29739001154899586 -0.41258292943239216
leaf_weight=13.999999999999998 10.999999999999998 17.000000000000004 10.000000000000002 18 10.999999999999998 10.999999999999998 14.999999999999998 10.000000000000002 9.9999999999999982 10.999999999999998 11.000000000000002 10.999999999999998 10.999999999999998 10.999999999999998 15.000000000000002 11.999999999999998 19 9.9999999999999982 19 11.000000000000002 9.9999999999999982 12.999999999999998 9.9999999999999982 12.999999999999998 13.999999999999998 10.999999999999998 10.000000000000002 15.999999999999998
leaf_count=14 11 17 10 18 11 11 15 10 10 11 11 11 11 11 15 12 19 10 19 11 10 13 10 13 14 11 10 16
internal_value=-0.0110877 0.0806482 0.019242 -0.0825998 -0.144074 -0.034136 0.141975 0.17423 0.347081 -0.169096 -0.0164018 -0.195146 0.0333885 -0.264851 -0.0504823 0.200478 -0.294673 -0.317409 0.32069 -0.298298 -0.182837 0.329958 -0.174187 -0.369725 0.247029 -0.179998 -0.31814 -0.368278
internal_weight=365 216 172 94 149 78 78 34 27 72 33 44 51 71 40 22 33 60 44 39 21 23 25 49 33 22 39 26
internal_count=365 216 172 94 149 78 78 34 27 72 33 44 51 71 40 22 33 60 44 39 21 23 25 49 33 22 39 26
is_linear=0
shrinkage=0.05


Tree=28
num_leaves=29
num_cat=0
split_feature=58 45 36 87 26 40 13 53 136 71 17 93 9 57 33 113 86 135 25 116 131 67 33 53 64 3 46 73
split_gain=1607.48 1149.37 776.107 830.877 728.431 1083.94 553.904 479.019 474.29 545.011 539.644 470.537 483.245 439.9 431.904 400.733 359.014 332.255 328.467 303.667 276.57 271.371 236.456 226.342 218.039 202.257 173.325 138.221
threshold=0.63235000000000008 5.5841700000000012 15.500000000000002 389.52000000000004 2011.5000000000002 3.6708250000000002 162.50000000000003 0.75720000000000021 0.017421718327702704 12.253166666666667 185.00000000000003 0.49150000000000005 16.550000000000004 9.5578500000000002 0.62535000000000018 2.5000000000000004 0.010955321777630552 2.5000000000000004 3.1500000000000008 1.0000000180025095e-35 0.95714285714285718 4.3999999999999995 0.69995000000000018 1.2343000000000004 2.755000000000003 21.350000000000005 29.922100000000004 4.5829000000000013
decision_type=2 2 2 2 2 2 2 2 2 2 2 2 2 2 2 2 2 2 2 2 2 2 2 2 2 2 2 2
left_child=4 19 8 16 5 20 -7 11 9 25 14 -6 -13 15 -10 -5 -4 21 -8 24 -1 -17 -23 26 -2 -3 -9 -25
right_child=1 2 3 13 7 6 18 23 10 -11 -12 12 -14 -15 -16 17 -18 -19 -20 -21 -22 22 -24 27 -26 -27 -28 -29
leaf_value=0.45326934131708996 0.26249510926358843 0.25374786138534539 0.37483827347556742 -0.40901859038405952 0.20092188835144045 0.055463114731452046 -0.48664100903731111 -0.58086406751112485 0.36168435116608927 0.47183196351808665 -0.26582892537117003 0.030171095828215273 -0.40222912920372828 0.14709380865097046 -0.035134402941912411 -0.24778123423457138 -0.03080692619085312 -0.33010135335581647 -0.10548031568527222 0.090156057476997384 0.098708115382628012 0.24314510539174072 -0.10069754607975484 -0.11563450821808403 0.52403770367304492 -0.056947682391513481 -0.32303864806890492 -0.35902201175689696
leaf_weight=11.000000000000002 17 10.000000000000002 12.000000000000002 18 9.9999999999999982 17 13.000000000000002 11.000000000000002 12.000000000000002 17 11.999999999999998 12.000000000000002 13.999999999999998 9.9999999999999982 15.999999999999998 10.000000000000002 9.9999999999999982 13.999999999999998 9.9999999999999982 11.999999999999998 10.999999999999998 10.000000000000002 9.9999999999999982 14.000000000000002 14.999999999999998 10.999999999999998 15.999999999999998 9.9999999999999982
leaf_count=11 17 10 12 18 10 17 13 11 12 17 12 12 14 10 16 10 10 14 10 12 11 10 10 14 15 11 16 10
internal_value=-0.0105333 0.0766158 0.0182799 -0.0784698 -0.13687 -0.00591147 -0.160957 -0.230197 0.134876 0.261374 0.0147029 -0.0905538 -0.20266 -0.160641 0.134931 -0.210276 0.190454 -0.128972 -0.320919 0.304656 0.275989 -0.0351112 0.0712238 -0.328769 0.385093 0.0910026 -0.428079 -0.217046
internal_weight=365 216 172 94 149 62 40 87 78 38 40 36 26 72 28 62 22 44 23 44 22 30 20 51 32 21 27 24
internal_count=365 216 172 94 149 62 40 87 78 38 40 36 26 72 28 62 22 44 23 44 22 30 20 51 32 21 27 24
is_linear=0
shrinkage=0.05


Tree=29
num_leaves=28
num_cat=0
split_feature=27 24 113 67 38 26 3 74 86 134 11 2 76 37 67 77 69 58 103 96 18 55 5 15 15 106 31
split_gain=1603.22 790.068 971.25 643.611 640.655 653.983 586.605 642.525 635.817 581.914 519.342 430.794 386.479 371.588 337.65 330.633 288.934 334.314 274.65 288.159 216.663 216.642 212.582 168.219 173.325 53.7849 36.0039
threshold=99.100000000000009 135.79200000000003 3.5000000000000004 -4.8999999999999977 95.695450000000008 2015.5000000000002 26.450000000000003 51.028333333333343 0.0094560971647171029 2937.7000000000007 217.50000000000003 116.25000000000001 65.52500000000002 0.94205000000000017 0.80000000000000437 20.425000000000001 2.6500000000000008 0.78290000000000071 0.84500000000000008 0.35461748321982939 0.35950000000000004 11.875900000000003 55.585000000000008 0.50750000000000017 0.5355000000000002 26.850000000000005 48.500000000000007
decision_type=2 2 2 2 2 2 2 2 2 2 2 2 2 2 2 2 2 2 2 2 2 2 2 2 2 2 2
left_child=1 2 4 -4 5 16 7 -6 11 -8 12 22 23 -3 -15 -10 17 20 -14 -20 -1 -2 -9 -5 -25 -17 -23
right_child=21 13 3 10 6 -7 9 8 15 -11 -12 -13 18 14 -16 25 -18 -19 19 -21 -22 26 -24 24 -26 -27 -28
leaf_value=-0.37488912386553619 -0.12901524737477305 -0.36342883929610253 -0.18998776891014793 0.22445795933405557 0.34819613640958613 0.12738020655355956 0.078780799309412619 -0.17489217579364771 0.33538047432899465 0.57118726193904878 -0.094770326217015588 0.038073386116461327 0.33425942482426763 -0.23986995539494918 0.10155280083417893 -0.098732380717992757 -0.37704560558001199 0.06075781360268593 0.25395370093839514 -0.044998785147541451 -0.078356881033290526 -0.47156922817230207 -0.48703515132268271 0.61344351291656474 0.34470777332782748 0.065256850719451906 -0.35247532367706302
leaf_weight=14.000000000000002 9.9999999999999982 15.999999999999998 10.999999999999998 11.999999999999998 10.999999999999998 19 15.000000000000002 10.000000000000002 10.000000000000002 9.9999999999999982 11.999999999999998 10.999999999999998 15.999999999999998 14.000000000000002 14.999999999999998 10.000000000000002 18 13.999999999999998 13.999999999999998 19 10.999999999999998 11.000000000000002 11.999999999999998 10.000000000000002 14.999999999999998 9.9999999999999982 14.999999999999998
leaf_count=14 10 16 11 12 11 19 15 10 10 10 12 11 16 14 15 10 18 14 14 19 11 11 12 10 15 10 15
internal_value=-0.0100067 0.0246569 0.0554995 0.17266 -0.0174749 -0.126663 0.066346 -0.00439634 -0.0659601 0.275743 0.213366 -0.21741 0.256361 -0.169994 -0.063272 0.100635 -0.211344 -0.134866 0.164256 0.0818295 -0.244415 -0.326793 -0.345152 0.378339 0.452202 -0.0167378 -0.402861
internal_weight=365 329 284 109 175 76 99 74 63 25 98 33 86 45 29 30 57 39 49 33 25 36 22 37 25 20 26
internal_count=365 329 284 109 175 76 99 74 63 25 98 33 86 45 29 30 57 39 49 33 25 36 22 37 25 20 26
is_linear=0
shrinkage=0.05


Tree=30
num_leaves=30
num_cat=0
split_feature=27 24 12 19 73 73 16 39 27 39 0 27 2 57 4 36 29 10 8 79 8 51 79 26 100 14 24 21 49
split_gain=1365.67 844.567 902.714 801.839 992.286 788.09 543.283 741.374 681.196 607.547 509.419 494.884 503.43 399.724 396.079 390.61 387.543 501.145 400.967 383.189 322.25 304.007 243.952 231.995 206.086 190.79 177.242 132.919 26.7807
threshold=99.100000000000009 136.29950000000002 0.83850000000000013 0.25000000000000006 4.7034250000000002 2.4597250000000002 6.5000000000000009 90.881950000000003 46.900000000000006 88.59950000000002 35.500000000000007 91.700000000000003 111.95000000000002 1.4898499999999999 49.150000000000013 11.500000000000002 78.500000000000014 105.50000000000001 10.050000000000002 0.46793250000000003 8.0500000000000025 4.2845500000000012 0.37205305555555562 2013.5000000000002 3.7537878787878793 230.00000000000003 128.17150000000004 47.300000000000004 1.9701500000000001
decision_type=2 2 2 2 2 2 2 2 2 2 2 2 2 2 2 2 2 2 2 2 2 2 2 2 2 2 2 2 2
left_child=1 3 10 -1 5 6 7 11 -8 22 13 20 -13 -3 -7 23 18 -18 -17 -16 -5 -2 -10 -11 -19 -9 -21 -24 -23
right_child=21 2 -4 4 -6 14 8 25 9 15 -12 12 -14 -15 19 16 17 24 -20 26 -22 28 27 -25 -26 -27 -28 -29 -30
leaf_value=0.45209145683508656 -0.052993018627166745 -0.09877129197120664 -0.55826130997050893 -0.31056414966781931 -0.34518993705511097 0.42580255395487737 -0.42465123414993289 0.55035212278366064 0.029094913601875307 0.32896360390716128 -0.26849123537540437 0.43688214380632734 -0.053294928222894666 0.3482877576351166 -0.073348496653712722 0.11034057080745695 -0.119812902957201 0.42262194037437428 -0.28454135573572586 0.12129893153905864 0.073750753402709965 -0.44157750844955435 -0.36429096247468667 0.057579890319279264 0.11528490657607715 0.2485924942926927 0.39916137009859087 -0.1256169293820858 -0.33727186992764474
leaf_weight=12.999999999999998 9.9999999999999982 10.000000000000002 10.999999999999998 12.000000000000002 14.999999999999998 19 9.9999999999999982 10.000000000000002 9.9999999999999982 18 13.999999999999998 11.000000000000002 9.9999999999999982 9.9999999999999982 12.999999999999998 10.000000000000002 14.999999999999998 10.000000000000002 18 11.000000000000002 9.9999999999999982 10.000000000000002 14.000000000000002 13.999999999999998 11.999999999999998 10.999999999999998 11.999999999999998 9.9999999999999982 15.999999999999998
leaf_count=13 10 10 11 12 15 19 10 10 10 18 14 11 10 10 13 10 15 10 18 11 10 10 14 14 12 11 12 10 16
internal_value=0.00527083 0.0368979 -0.164546 0.0683735 0.0502341 0.0730471 0.0279575 0.148774 -0.0268811 0.00348302 -0.037168 0.0298487 0.203464 0.124758 0.241108 0.0672327 -0.0031676 0.103039 -0.143512 0.14363 -0.135876 -0.287279 -0.178391 0.210233 0.254984 0.392288 0.266271 -0.264843 -0.377389
internal_weight=369 333 45 288 275 260 205 64 141 131 34 43 21 20 55 97 65 37 28 36 22 36 34 32 22 21 23 24 26
internal_count=369 333 45 288 275 260 205 64 141 131 34 43 21 20 55 97 65 37 28 36 22 36 34 32 22 21 23 24 26
is_linear=0
shrinkage=0.05


Tree=31
num_leaves=29
num_cat=0
split_feature=27 23 27 35 47 9 74 61 120 120 40 68 63 56 28 80 73 67 27 45 15 74 94 11 45 10 86 49
split_gain=1232.52 1026.91 643.696 741.209 796.714 518.017 468.674 562.554 533.851 545.712 416.392 533.415 404.227 393.086 392.976 313.877 282.269 351.264 254.79 252.71 211.46 207.051 195.375 254.174 185.323 145.362 63.4471 32.3153
threshold=99.100000000000009 6.2845650000000015 32.500000000000007 11.500000000000002 4.7330650000000007 11.350000000000003 50.491250000000008 -0.052699999999999844 88.587616333236539 95.080348181332752 3.3889100000000005 8.2000000000000082 3.4450000000000007 6.3088200000000008 1.7529671800000002 0.13646875000000003 1.2918000000000003 5.3000000000000052 88.200000000000017 9.1098700000000026 0.51900000000000013 57.570416666666667 0.78925410013542385 143.50000000000003 7.9052400000000009 132.50000000000003 0.0097110697635409016 1.9701500000000001
decision_type=2 2 2 2 2 2 2 2 2 2 2 2 2 2 2 2 2 2 2 2 2 2 2 2 2 2 2 2
left_child=1 2 -1 5 10 -4 -7 -8 -9 13 18 20 16 -10 -3 -2 -6 25 -5 -14 -12 24 -13 -24 -15 26 -18 -17
right_child=15 14 3 4 12 6 7 8 9 -11 11 22 19 21 -16 27 17 -19 -20 -21 -22 -23 23 -25 -26 -27 -28 -29
leaf_value=-0.3356605386734009 -0.03485594466328621 -0.52294553995132431 0.48003303209940595 0.45839730176058668 -0.36094381362199784 0.42835484147071839 0.35784435763078581 0.36394374587319117 -0.2767296575837665 0.25475169161955519 -0.022188783983389533 0.010834963321685792 0.186691261496162 0.076285270452499374 -0.10603249279352336 -0.43498606681823715 -0.2205010104179381 0.08706711014111837 0.14956721277797924 -0.12462857799096541 -0.3190189361572266 0.16900186596008449 0.4189483832229266 0.097770911242280698 -0.21515873720248543 -0.36492069244384767 -0.042389963865280156 -0.32040827721357346
leaf_weight=9.9999999999999982 9.9999999999999982 10.000000000000002 11.999999999999998 11.000000000000002 14.999999999999998 11.999999999999998 17 10.999999999999998 18 14.999999999999998 15.000000000000002 14.999999999999998 16.000000000000004 10.000000000000002 12.999999999999998 10.000000000000002 10.000000000000005 14.999999999999998 17 10.999999999999998 9.9999999999999982 12.999999999999998 11.000000000000002 13.999999999999998 11.999999999999998 9.9999999999999982 9.9999999999999982 15.999999999999998
leaf_count=10 10 10 12 11 15 12 17 11 18 15 15 15 16 10 13 10 10 15 17 11 10 13 11 14 12 10 10 16
internal_value=0.00500728 0.035053 0.0589694 0.0721237 0.00795344 0.168379 0.133751 0.0969255 0.0407784 -0.0114983 0.109696 0.0402574 -0.100806 -0.0868521 -0.287299 -0.272915 -0.173104 -0.110491 0.270893 0.0598573 -0.140921 0.0107992 0.153494 0.239089 -0.0826842 -0.209271 -0.131445 -0.364477
internal_weight=369 333 310 300 180 120 108 96 79 68 93 65 87 53 23 36 60 45 28 27 25 35 40 25 22 30 20 26
internal_count=369 333 310 300 180 120 108 96 79 68 93 65 87 53 23 36 60 45 28 27 25 35 40 25 22 30 20 26
is_linear=0
shrinkage=0.05


Tree=32
num_leaves=30
num_cat=0
split_feature=27 23 54 72 55 35 46 42 76 31 73 86 3 87 71 36 28 2 80 46 71 33 113 89 67 37 136 53 49
split_gain=1112.35 926.784 592.834 553.977 707.902 502.565 494.897 599.205 436.821 423.931 522.52 413.585 413.239 398.75 384.207 448.987 354.661 289.407 283.274 278.38 249.064 243.325 237.754 326.776 222.6 219.956 203.023 136.358 29.1645
threshold=99.100000000000009 6.2845650000000015 0.15690000000000001 2.8287750000000007 12.925900000000002 53.500000000000007 32.074850000000005 4.1677500000000007 78.000000000000014 27.500000000000004 0.59976666666666678 0.0087022060628436527 26.450000000000003 548.80000000000007 14.514700000000001 5.5000000000000009 1.7529671800000002 112.55000000000001 0.13646875000000003 32.967200000000012 15.458550000000001 0.62940000000000007 3.5000000000000004 0.65535190615835781 0.69999999999999585 0.92545000000000011 0.020380422385620853 1.0128000000000001 1.9701500000000001
decision_type=2 2 2 2 2 2 2 2 2 2 2 2 2 2 2 2 2 2 2 2 2 2 2 2 2 2 2 2 2
left_child=1 2 11 -4 5 9 7 -6 13 10 -5 -1 22 19 -10 -16 -3 27 -2 -8 -13 -12 23 -9 -25 -17 -21 -11 -20
right_child=18 16 3 4 6 -7 8 12 14 17 21 20 -14 -15 15 25 -18 -19 28 26 -22 -23 -24 24 -26 -27 -28 -29 -30
leaf_value=0.036794965886152713 -0.033113145455718043 -0.49679826974868757 -0.33321353971958162 0.36179985404014592 0.25699331939220427 -0.15838738610967995 0.24209157885874022 -0.3674974411725998 -0.24930957825854422 0.34018684228261303 0.10343083391586937 0.57550223469734174 -0.36280582232607739 0.38619656094482968 0.32988449573516848 0.11960768699645992 -0.10073087189633112 0.14856631408135099 -0.4132367610931395 -0.13198403697460889 0.22261128067970276 -0.23052100360393527 0.075506355613470078 0.11479301371357653 -0.21115296185016633 -0.17931873183697464 0.13403303989997278 0.59018186092376712 -0.30438786223530773
leaf_weight=12.999999999999998 9.9999999999999982 10.000000000000002 9.9999999999999982 11.999999999999998 9.9999999999999982 9.9999999999999982 17 11.999999999999998 15.999999999999998 12.000000000000002 12.000000000000002 10.000000000000002 18 13.999999999999998 9.9999999999999982 10.000000000000002 12.999999999999998 11.999999999999998 10.000000000000002 16.000000000000004 9.9999999999999982 9.9999999999999982 15.999999999999998 11.000000000000002 9.9999999999999982 15.999999999999998 12.999999999999998 9.9999999999999982 15.999999999999998
leaf_count=13 10 10 10 12 10 10 17 12 16 12 12 10 18 14 10 10 13 12 10 16 10 10 16 11 10 16 13 10 16
internal_value=0.00475692 0.0333003 0.0560209 0.0321553 0.0458395 0.172571 -0.00646234 -0.104042 0.0606238 0.221241 0.0963988 0.256348 -0.157928 0.15255 -0.0454448 0.0451617 -0.272934 0.346084 -0.25927 0.08144 0.399057 -0.0483655 -0.0826668 -0.159357 -0.0404194 -0.064347 -0.012735 0.453821 -0.346253
internal_weight=369 333 310 277 267 78 189 77 112 68 34 33 67 60 52 36 23 34 36 46 20 22 49 33 21 26 29 22 26
internal_count=369 333 310 277 267 78 189 77 112 68 34 33 67 60 52 36 23 34 36 46 20 22 49 33 21 26 29 22 26
is_linear=0
shrinkage=0.05


Tree=33
num_leaves=28
num_cat=0
split_feature=27 30 42 17 28 27 60 56 73 121 42 25 72 36 71 74 2 84 46 97 73 76 76 32 55 39 31
split_gain=1003.89 639.454 587.474 597.961 647.648 748.587 519.163 554.96 548.27 486.656 389.604 432.036 368.989 363.832 326.492 321.495 303.328 373.556 258.734 244.344 233.401 222.143 220.21 180.224 123.97 90.3432 24.9766
